182 500
cortez -0.00022341484 0.0002854023 0.0012651054 0.0019022725 -0.0019341626 -0.0018475364 0.0012610698 0.0022233243 -0.00071728555 -0.0007300835 0.001255746 -0.0003137003 -0.0009390286 0.0015186438 -0.0009536374 -0.0005143989 0.00051705004 0.00011450668 -0.0013800418 -0.0017504946 0.0016465408 0.001059479 0.0014320798 0.00039079261 0.0012951152 -0.00070703006 -1.3019806e-05 0.0014222987 -0.0015715456 -0.0009724185 -0.0013607402 -0.00013451395 0.0020529612 -0.0016825994 -0.00053902424 -0.00035085078 0.00184585 -0.0011981975 -0.0002583988 -0.0009896511 -0.002294646 0.00085992634 -0.002083257 -0.00095950265 -0.00031172193 -6.525092e-05 -0.0016972079 0.0019949137 0.0014492022 0.0018884413 -0.0017232932 0.0011654645 -0.00054501154 4.133249e-05 0.0018264398 -0.0010494435 0.0011377293 -0.0015511294 -0.0010665354 0.0019314263 -9.214615e-05 5.9997936e-05 -0.00080486597 -0.0015054956 -0.00072726083 0.0005118768 -9.3336275e-06 0.0015043522 -0.00035186412 0.0004853752 0.0011186167 0.0021066312 -0.00014705396 -0.002070908 0.0009823111 0.00030336177 0.0013826592 -0.00020778061 -0.00014810695 -0.0018923527 -0.00024629253 0.0005571027 0.00090268825 0.0018790072 -0.0014437048 0.000494634 0.0011358479 -0.0009888324 -0.00042285293 0.0017196466 0.0006360589 -3.5141114e-05 0.00049063604 0.00026361246 0.002243742 0.0012316493 -0.0017368553 -0.001742358 0.00044418528 0.0014886002 -0.00170143 0.00077373954 0.0010023481 0.0014026214 0.0018795864 -0.001094606 7.7648685e-05 0.0013967459 -0.0005670299 -0.0014930652 -0.00024604693 -0.001639499 -0.001052383 0.0014973362 0.0006190857 0.0014137243 0.0013894135 0.0012472358 -0.00087309326 -0.0002584622 0.00048143597 -0.0008018918 0.0017850437 -0.0022508977 0.0017051961 0.0008262906 -0.0013269258 0.00080487836 -0.00029016935 0.0014268731 0.0022123193 -0.0006019417 -0.0005413963 -0.0013654019 0.000644649 0.00072565314 0.0013990144 0.0013673669 0.0015183075 0.0013244074 0.0020141455 -0.0015075187 -0.0017660803 -0.00030938655 -0.00079334754 0.0017289172 0.0011228833 -0.00045110524 0.00030689986 0.00039734945 0.0017505261 -0.002216077 -7.565827e-05 0.0009810708 -0.00048829825 0.001905877 0.0021417378 0.0012613616 -0.00024521045 0.0015641436 -0.0013700216 0.0009677291 -0.001086531 -0.0012061642 0.00042262397 0.0011942636 0.0020670837 -0.0011844272 0.0015174543 0.0014324544 -0.0005209975 -0.0013411753 0.001006647 0.0019230127 -0.00033839297 -0.001600832 -0.0014690117 -0.00058110745 0.00089831045 -0.00028186332 -0.002002715 0.0008956235 0.0009863479 -0.0014478607 0.000100327394 -0.0007295434 -0.00021917846 -0.002014817 0.00027726922 -0.00060274097 0.00015322867 -0.00043411597 0.00062474224 -0.0017798085 -0.0006723909 0.0008048959 0.0011800582 -0.0007431895 -0.0018917749 0.001076166 0.00030981953 0.0006099064 -0.0013324076 -0.0005263183 0.0015166892 0.0013813488 -0.0008108123 0.0004406325 -0.0016988926 0.0010574375 -0.0009367891 -0.0008939326 0.0017694696 2.32168e-05 0.001443518 -0.0012423047 0.0010091513 0.0019833408 -0.0019434855 -0.0014243212 -0.0012720301 -0.00059290626 -0.0006835178 -0.0019648876 0.0018472719 -0.0010187115 0.0018657385 0.0011139762 -0.0011655323 0.0010969992 0.0010712518 -0.0017299801 -0.0014259237 -0.0005926176 -0.0019552682 -0.00029746583 -0.0005220021 0.00021695349 0.00058028835 -0.00026142906 -0.0014158074 0.00034204737 -0.00048043704 0.0014767738 0.0005621359 0.0008994703 0.00043816408 -0.00043492403 -0.0010467521 -0.00017940688 0.00033411317 -0.00096936314 -0.0016561492 -0.0017243029 -0.002206605 -0.0009987098 -0.00021437487 -0.00056552776 -0.0016963168 -0.0008224897 0.0007612223 -0.0006731494 0.0014806215 0.00025019175 -0.0013697892 0.0020241744 0.0013475853 0.0012342685 -0.0016654369 0.0011797803 0.00057811145 0.0011062976 0.0010357985 0.0003903266 -0.00061071274 0.0019409682 0.001721775 0.00032974884 -0.0007958948 -9.543444e-05 -2.521506e-05 -0.0015417492 -0.0018332257 -0.00028028662 0.0006048688 -0.0013141186 -0.00094518496 -0.0013617077 0.0018522277 0.0003646282 -0.0011608308 0.0016463575 0.0020530564 -0.0011509745 0.00161393 0.0011580157 0.0015110499 -0.00013170869 0.0015551546 -0.0016827926 -0.0018886515 0.0021071911 7.568323e-05 -0.00045413373 0.0013201587 -0.0012498795 0.00053923036 0.0016048868 0.0012753034 -0.001643151 0.0018939937 0.0007307451 0.00088342285 -0.0013195426 0.0019280108 -0.00044928316 0.0018223153 -0.0009677569 -0.0014796596 0.0011916703 0.0005938318 -0.00041381456 0.0020710565 0.0021168063 -0.002118158 0.00059799704 0.0010593588 0.00038206848 0.0006687782 8.72565e-05 8.771607e-05 -0.00067246845 -0.0013945419 -0.00017530115 0.0007225578 0.0017558638 0.0019577704 -0.0008212967 -0.0019444262 0.0018860595 0.0005143872 0.0010817285 0.0013097489 -0.00064077124 0.0016332553 0.0003135432 7.1294824e-05 -0.0004600427 -0.00046273312 -0.00020621801 0.00089149247 -6.498021e-05 -0.002136907 -0.0020236333 -0.0016064662 -1.2599851e-05 0.00027272353 0.0019179973 0.0010664241 -0.001085062 -0.00012063878 0.0010521788 0.0014594974 0.00026368676 0.00063853816 -0.0011447843 -3.799856e-05 0.0014574735 -0.0009761887 -0.0020923242 0.0010414936 -0.0010773761 -0.00025743974 0.0020161273 -0.00049693516 -0.0013632735 -0.0011037387 0.0012725325 -0.0010086626 0.0003581215 -0.0010242257 0.00095412787 0.001524478 0.00055073405 -0.00011197015 -0.00045225618 0.0018766539 0.0012646681 -0.00033175506 -0.0015846736 -0.0015264833 -0.00038636025 -0.00031578905 -0.00035799964 0.0021636973 6.878552e-05 0.001316569 -0.0017504696 -0.00037777735 -0.0008538537 -0.0017825735 0.0002526182 -0.0018273005 -0.0009185001 0.00079550996 0.0009276508 0.00012859734 0.00057546335 -0.0009036304 0.0016592811 -0.0015398831 0.0009846668 -0.0019128453 0.00031019212 -0.00080689206 -0.0004694621 -0.00038081734 0.0012764839 0.0012989104 -0.0010256981 0.00032853606 -0.0016153856 0.0013470323 0.0019032534 -0.0007289726 0.00015056199 -7.733161e-05 0.0010430356 -0.0016765043 -0.00010872494 0.0010983477 0.00066724414 0.0001484175 -0.0019388248 0.0016847688 -0.0011806875 -0.00084553147 0.0006165731 -0.00033295358 0.00024255422 0.00073151663 -0.0011214647 -0.0016369631 0.0017979527 0.0019491875 -0.0014145812 0.00082328735 0.00014927448 0.0007555893 -0.0014863964 0.00072257593 0.000967421 0.0020113091 -0.0010748107 -0.00022454809 -0.0014133153 -0.0021995138 -0.0019897923 -0.00030388948 -0.0014829923 0.0012302039 -0.0011194514 0.0004580044 0.00012892149 -0.0007041513 -0.00046339046 0.0016668062 0.001505789 -0.0012555257 0.002045916 -0.0015891532 0.0011642288 -0.0002758699 0.00064445916 0.001016645 0.0015553439 -0.00017437426 0.0018449982 0.0013253128 -0.0020253235 -0.0019032881 -0.0017839561 0.00037827296 -0.0003772521 -0.0012489767 -0.0016592565 0.0018167178 0.0006510018 -0.0017143589 -0.0009817679 0.0006044589 -0.001096597 0.0012440757 -0.0010741856 0.00082907034 -0.0018659557 0.0010859943 0.0007232593 7.2020666e-05 0.00024029726
said -0.0018047641 0.0005347271 -1.5703215e-05 -0.001769946 -0.0019431913 -0.0005489861 0.00082757924 0.0010386859 -0.0011074619 -0.0013387762 -0.00117777 -0.00043493355 -0.0013949255 -0.0017394099 -0.0005178833 -0.0017420718 -0.0011915085 -0.0011670049 -0.00026959484 -0.00025956682 -0.0016795412 -0.000117292315 0.0016812166 0.001656439 -0.00146009 -0.0007499487 0.00070643815 -0.0017318007 0.00028294235 0.0011852131 0.0012337728 -0.0017223019 -0.00079001684 -0.0017173947 -6.3725754e-05 0.0018478957 0.0013311374 0.0010045227 0.0008423422 -0.00069231965 0.0016769265 -0.0015506835 -0.0016217766 -0.00048621694 -0.00031546078 -0.0006324807 -0.00020902678 0.0014910278 0.00011968449 -0.0003356864 0.00047255316 -0.0015072548 0.0017102731 0.0016048226 -0.0018310291 0.00038820924 0.0020911968 -0.0016372072 -0.0016117484 -0.0015301657 0.0018351986 -0.00011811684 0.0018351733 -0.0015834646 0.0004706671 0.00056417775 0.00028725396 0.00072118914 -0.0013679801 -0.0018371253 0.00048169878 0.0014716735 0.001665252 0.0010238081 -6.0885435e-05 0.0017982437 -0.0019362931 0.00071113586 0.00026687438 0.0006613868 0.0014231486 -0.0013293561 0.0010442086 -0.0016146383 -0.00035996226 -0.0016154032 -0.0010402626 0.0018428118 -0.00022244766 0.00079597905 0.0019938766 0.0017022135 -0.0017890761 -0.0004627665 0.0021213784 0.0011182711 -0.00029283366 -0.0019074992 0.00078965013 -0.0012007679 0.001606982 -0.00083785696 -0.00024186929 0.00036679656 0.00018014309 0.00035465125 0.0011126014 0.00011099495 -0.0006750387 -0.00044124198 0.0010370017 0.00034326344 -0.00015003205 0.0018695636 -0.0010360102 -0.00016545093 0.0018432202 0.0011373481 0.00018376787 -0.0018279015 0.00022208414 -0.0004195348 0.0018931797 6.154366e-05 0.0005132823 0.00057604315 -0.00053899287 -0.0010860661 4.1339597e-05 -0.00033732795 0.0014495444 0.001962687 -0.0004401589 0.00043655382 -0.00130659 0.00044285535 -0.0013787303 -0.0016672828 -0.0013772434 -0.0021557075 0.0017335959 -0.001229129 0.0016697367 -0.0015652024 0.0005823907 0.0019864754 -0.0015874112 -0.0020673275 -0.0008541571 -0.00052057975 9.659389e-05 -0.0019380315 -0.0017423119 0.000711172 -0.0018021388 -0.0016609057 -0.00028453386 -0.0017458954 -0.0015043797 -0.0016466844 0.00010722061 -0.0006795822 0.0012276088 0.00015540572 -0.0008388398 0.001271324 -0.0009004932 -0.00094720145 -0.001434638 -0.00081662607 -0.00022970844 0.001538224 -0.0005942114 0.0013503592 0.0012511533 -0.0016690339 0.0009100109 0.0011458544 -0.0006733001 0.0015913332 0.0011488836 -0.0011921006 -0.0013813839 0.00038983262 -0.00042306443 -0.0013657032 0.0017699362 -0.0010718324 -0.0014794468 0.00017049874 -0.0005721149 2.0745032e-05 -0.00058240636 -0.0002050997 -0.00022543041 0.00035593772 0.0017186274 -0.0013231655 -0.00031428874 0.001211269 0.0017883971 -0.0008779165 0.0017977235 0.0015084994 -0.0009018689 3.2075648e-05 0.0007826243 -0.00083827355 -0.00114408 -0.0014573617 -9.557955e-05 -0.00025029297 0.0008444504 -0.0005704622 -7.652957e-05 0.0004630207 0.0009670485 -1.2683666e-05 -0.0014177833 -0.0020768917 8.278129e-05 0.001567748 0.00033480127 -0.0019166365 -0.0014579244 0.0012997775 -0.0006271416 0.0012798555 -0.0012109173 0.0018494271 -0.0013061459 0.00048676317 -0.00020781647 -0.0014094523 -0.0008046115 -0.00019632046 -0.0013515371 -0.0004940483 -0.0013130709 0.00050964026 0.0016014572 -0.00050452305 -0.00038206647 0.00079942436 0.0015756959 -0.0011546577 -0.0013015375 -0.0005332816 0.0017342694 0.00019351223 -0.0016664003 -0.00055887824 0.0017168192 -0.0015884604 -0.0012791312 0.0019628506 -0.0016917376 0.0009355289 -0.00016749091 0.0013003853 0.0015513211 -0.00050271343 -0.0009103855 0.0017095101 0.00047395276 0.0013051347 -0.0019871942 0.0019914124 -0.00046111195 -0.0012397304 0.00045454604 -7.343367e-05 0.0010513942 -0.00043674518 -0.00080380455 0.00061723683 0.0015331227 -0.0012980738 0.0004173896 -0.0016147705 -0.0014969234 1.3450707e-05 -0.0018671241 0.00037565417 0.0005268932 -0.00058227614 0.0009952376 0.0020106258 0.0017852291 -0.00015087481 0.00024286717 -0.00047185036 -0.0015497621 0.0010413443 -0.00038489146 -6.644697e-05 -0.00014894555 -0.0010575476 0.0007689872 -0.0010035054 -0.0020443744 0.0019606014 0.0009069058 0.0018252165 0.001535383 0.0002954244 0.0019317608 -0.0007394323 -0.0013430176 0.0007256636 0.0007472538 -0.0012484193 0.0020278676 -0.0007194162 0.0020744863 0.00018408366 -0.0012343606 -0.00036154134 -0.0013286757 -0.0007205435 0.00035881926 0.0018847585 0.001985987 -0.0012206656 0.00057533954 0.0005650817 -0.0006161457 -0.0020931992 0.0003465907 -0.0016138066 0.001249851 -0.0010967783 0.001087644 0.0020893812 -4.8602218e-05 0.00089269417 -0.00031910298 0.0017074094 0.0007506401 -0.001812354 -0.0005620499 0.0007736714 6.4483623e-07 -0.00030678042 -0.00013662808 -0.00047120452 -0.0002241439 0.00078569865 -0.0007390908 -0.0006161178 3.928541e-05 -2.2210448e-05 -0.00014848453 -0.0010175424 0.0006142789 -0.0004061473 0.00036513008 0.00018919089 0.0011249365 -0.0014977325 -0.0014348442 -0.000850282 0.001807675 5.6433673e-06 -0.0019961926 -0.0001424096 -0.00081986125 0.0010880434 -0.0022289106 0.0004876949 -0.0019236075 6.533857e-05 0.0011999448 0.0014689309 -0.0014776668 -0.0014392489 -0.0013702511 -0.0016239631 -0.0018296947 -0.00046255268 -0.00017033164 -0.001607893 0.0017394538 0.00021435127 0.0012659222 0.00034541773 0.0001773429 -0.0013359115 -0.0003985281 0.0010264227 -0.0010250687 0.0001070448 0.00052418344 -0.00021626637 0.0020796412 0.0017719456 0.00054892275 0.001266696 0.0012589906 -0.0009001614 -0.0012559424 -0.0013167871 -0.0017868066 0.0013827083 -0.0003866625 -0.0014796158 -0.0008990243 0.0011444316 -0.0006275993 -0.0005895067 0.00015186882 -0.0005016433 -0.00043746093 0.00013465268 -0.00043465162 0.0019365764 0.00093576737 -0.0018854426 0.0013166311 -0.0013370836 0.0002516059 0.00092255266 -0.0011358592 -0.00040442808 0.0015452213 -0.0008381515 -0.0016825739 0.0018041545 -0.0004381581 -0.0011168896 0.0015157769 0.00097128155 0.00082447485 0.0017909019 -0.0017192366 0.0011308828 0.00026430862 0.00078380626 0.00023822699 0.00084788154 0.0011066048 0.0013584909 -0.0004559839 -0.0009366393 0.0003474349 0.00048780188 -0.0005842427 0.0012528932 0.0007239009 0.0015208403 0.00050041283 0.0016681405 -0.0002450094 0.0014934562 0.0008159059 -0.0015966343 -0.0009392844 -0.00061768916 0.0009244115 -0.00024125085 -0.00039987886 0.0016104087 0.0017939922 -0.00035045765 -0.0010599723 -0.0010653775 -0.0011350556 -0.0021050568 3.6263256e-05 -0.0007301096 0.00022706544 0.0010718863 -0.0006026485 -0.0019405668 0.0005563759 -0.0012576598 0.0006650419 -0.0007374303 0.0013629372 8.9308625e-05 0.0005447561 -0.0006627955 -0.0005194127 0.0016409343 0.0004149975 -0.001220857 -0.0014563561 0.00037138854 0.0013700336 0.0010746166 -0.0017513022 0.0016043851 0.00091661833 0.0013484856 0.0021699502 -0.0015869706 -0.0018922517 0.0009689053 0.0018198403 0.00045238528
gregorio 0.0013105439 -0.00018775283 0.0017675152 -0.0018087106 -0.0016659305 -0.0016244139 -0.0008407893 0.0013001902 -0.00052693463 -0.0016479463 0.001519069 -0.0007376494 0.0017186336 -0.0008408137 0.000824128 0.00091859844 0.00047112085 -0.0006475519 0.00075745035 -0.0015586445 -0.00045912154 -0.00047216864 0.0015207519 -0.00053978106 -0.0013038763 0.0008351225 2.4383055e-05 -0.0004887851 0.0013101695 0.0006426788 -0.0006872729 0.00016012942 0.0019601055 0.0014402405 0.0012213903 0.00096024753 0.0006399701 -0.00038039451 -0.0014791898 -0.00010913931 -0.0005993447 -0.00018318681 -0.0014460876 0.0014252398 -0.0015073445 -0.0014291181 -0.0006841854 -0.00024571604 -0.0012159095 0.0001351302 -0.001122051 -8.896618e-05 -0.0013187906 0.0002950845 0.00071079825 -0.0001283709 -0.0009391388 -0.0004513447 0.0011671006 0.0007755368 -0.0016175533 -0.0006666251 0.00045275496 0.00048184692 -0.002202455 0.0009660777 -0.0016084391 -0.0011859736 0.00084031676 -0.00066243176 0.000739404 0.0020394637 -0.0006110893 0.001705863 0.00045704987 0.0021211754 0.0010889531 -0.0018411819 -0.000417321 0.0011685856 0.0010522327 0.0017339959 0.0013072663 0.0019431654 -0.0021561347 0.0009537408 -0.0010410429 0.0007129471 0.0013817884 0.0011230415 0.0017572748 0.00023106368 -0.00043697667 0.0012989352 -0.00097391725 0.00014187877 0.0019319748 -0.0013043463 0.0009266594 -0.0014809675 0.0019400906 0.0017061055 0.00021510373 0.0011969036 0.00054752146 -0.0011514591 -0.00036304083 0.0014276094 -0.00092315837 -0.000961909 0.0008788499 0.00055278844 -0.00035640475 -0.000542446 0.0011298099 -0.0011859423 -0.0005983626 -0.001513991 -0.00091854663 -0.0018119894 -0.0008956637 -0.0016479724 0.0003326548 -0.0019166953 -0.0017282309 -0.0015127669 -0.001588265 0.0012544142 0.0007450924 0.0001372837 -0.0004129777 -0.0012796732 -0.00021123662 -6.7153116e-05 -6.0921782e-05 0.00029134905 0.00018315189 6.4420776e-05 -0.0018619688 -0.0015669402 -0.001394859 -0.00035316191 0.0003820275 0.0013458544 -0.0004973041 -0.00037475515 0.0018728196 -6.0856706e-05 -0.00047155807 0.0017152366 0.0007015989 -0.001291911 0.0012937037 0.0011196815 -0.001628402 9.276159e-05 0.0003902225 0.0011195092 -0.00045994134 -0.00052787655 0.00055362296 0.00040873385 0.00012843452 -0.0006861222 -0.0013854597 0.0015234231 0.0018103792 0.0016376041 -0.0017173105 0.0006028033 -0.00057332625 0.0022337604 0.0005396416 0.0013498924 0.00034927035 0.0011290933 -0.0011691685 0.0014693952 -0.0005631418 -0.0006174382 -0.00049623236 0.0020329831 -0.0013679721 -0.00059326645 0.0012951614 -0.00024325986 -0.0013820753 -0.0013139296 0.0016254414 0.0015102884 0.00093247695 -0.00072313857 -0.0017111412 0.0006267144 0.0013209842 -0.00092235615 -0.001468602 -0.0007759242 -0.0009397924 -0.00034988968 -0.00016815584 -0.0010574153 0.0018892583 -0.0020485187 0.0008739781 0.0010393689 -0.00035471562 0.0017333193 0.0019422891 -0.0012262857 -0.0012054652 -0.0015537286 -0.0016609911 -0.000708202 -0.0011753201 -0.0017171315 0.00015519833 0.00060010067 0.0011181245 -0.0008260338 -0.00079706125 0.00052140054 0.000117749274 0.0014750652 0.00019583508 0.0014284296 -0.0015169329 0.0017039264 -0.00027216724 0.0019638534 -0.0014933643 0.00019954244 0.00023333625 -6.005498e-05 -0.0011919083 -0.0018430226 -0.0017884958 -0.0018883281 0.00056986394 4.3654498e-05 -0.00054308685 0.0014355539 -0.000716492 -0.00015906751 -0.001941929 -0.0019565485 0.001885335 -0.0011234815 -0.0013913665 0.0010672609 0.001388262 -0.0016609166 -1.1304447e-05 -0.0013210237 6.861567e-05 -0.00074956595 -0.0005645175 0.00066132186 0.0014256319 0.0012960072 -0.0020243612 -0.0010396201 0.0014643575 0.00031782195 -0.00079809426 0.00021594444 0.0017980803 -0.00013764476 -0.0021165241 0.00033701924 0.0010955791 0.0013058893 0.0009431721 -0.0010990924 -4.5673463e-05 0.0001399214 0.00078288565 -0.0019234399 -0.0017847456 -1.5206176e-06 -0.0019029498 0.0012656681 -0.00022813842 0.0018064037 -0.0008166675 -0.00021729628 0.0015348666 -0.0007495168 -0.0008938276 0.0005724137 0.0002927801 -0.0001369635 0.0014172561 -0.0017577697 0.0006879471 0.00014982169 0.001960103 0.0010653065 0.0013103206 0.0013681311 -0.0020738218 0.0021133854 -0.0014572758 -0.00056214543 -0.00073581317 -0.0013053338 -0.0016335427 -0.0013946423 -0.0008583818 -0.00035996523 -0.0010215212 0.0011024496 -0.0018210022 -0.0011041977 0.0020809958 0.0014139009 0.001557917 0.00088941766 0.00022081978 -0.0013427365 0.0014114744 0.00052504614 0.001660454 0.0014133583 0.0014951242 0.0018176625 -0.0020627696 -0.0016030945 0.00042833827 0.0012904019 0.0014355186 0.0011631523 0.0015548946 -0.0008798977 0.0012857566 -0.00084042875 -0.0017707149 0.0021069017 0.00023262734 -0.0005905562 -0.0006053194 -0.0008104781 0.0009814993 0.0008166497 -0.0004463084 -0.0016421743 -0.0010644761 -8.27475e-05 0.001299845 -0.0003870608 9.725665e-06 0.000118887925 -0.0015855146 0.0003454144 -0.00052224705 0.00056788465 0.0008913979 -0.0002117587 -0.00059152715 0.0013711889 0.00088761724 0.0013715669 0.0008291405 0.0020807066 0.0013508755 -0.00024038559 0.0018571954 0.00084358116 0.0007374551 -0.0003544698 -0.0005005515 -0.0011031127 -0.0017395108 0.0005835645 0.0017635429 0.0015178245 -0.00043036294 0.0011563611 0.0008118875 -0.00090345513 0.00041210814 -0.0012868434 0.0021126722 0.0011018972 0.0007575773 0.00086593145 0.001775214 0.0016029815 -0.00012372079 -0.0012207632 0.0016694918 0.0013255585 0.00023820192 -0.00019585868 -0.0010481658 -0.0007609977 0.0018220261 -0.00079636264 -0.0011817866 0.00216646 0.0012804457 0.0018358673 -6.5270586e-05 -0.001992904 0.0017166998 -0.00086894585 0.0010616375 0.0010241722 0.0018712333 -0.0017080167 0.0016689894 -0.0018017611 -0.0015553008 -0.0019125018 -0.0009669269 0.001741679 0.0019994287 -0.00053259573 0.0008477901 -0.0007264655 0.0016873456 0.0012521493 -0.00013811007 -0.00069844065 -0.0015569621 0.0010220833 7.2931005e-05 -0.0005599419 0.0015927083 -0.0009717861 -0.001993942 -0.00032047028 -1.4378978e-05 -0.0013958644 -0.0011323235 -0.0016181268 0.001674985 0.0014395042 -0.00017627509 0.0014322704 0.0018307514 -2.7543958e-05 0.0015605383 0.0007545867 0.001509683 0.0014182886 -0.0008570269 -0.0004098123 4.239708e-05 0.000818731 0.00061120925 0.0010779976 0.00093979266 -0.0018192709 -0.00056056655 -0.0014471123 0.001785868 0.000873605 -5.8236146e-06 0.00069870945 -0.0013366825 -0.0012192958 0.0005650484 0.0013148638 0.0007171395 0.0010461811 -0.0005674846 -0.00088888843 -0.00019734878 -0.00048592218 -0.0014310976 -0.0015684935 0.0015296708 -0.00024276701 -0.00014015951 -0.0014671844 0.0020554967 0.00023144798 0.00028887403 0.00042825207 -0.0016553348 0.00017651942 0.0004273912 -0.0015717524 0.0011581872 0.000453489 0.0016147554 0.0011769868 -0.00049392163 -0.0014620031 0.0014563778 0.00027614206 0.0011543601 0.0011365139 0.00062184245 -0.001385437 -0.00010293159 0.00148547 -0.0012656478 0.0016154504
him -0.0015248074 0.0009664807 0.0005716888 0.0015600799 -0.0010372611 -0.0011949273 -0.0012299324 0.00093432615 -0.00072173047 0.0017308679 -0.001002067 -0.0018187063 -0.00094742875 0.0013879319 -0.00125673 -0.0011313923 -0.0014882842 0.0011344088 0.00082841195 0.0006303235 -0.00053580967 0.0012220762 -0.00117214 -0.0002667588 -0.0012079976 -0.00023178785 -0.00029595802 0.0018538602 -3.782039e-05 -0.0018439105 -0.0010133714 -0.0013167466 0.00065088796 0.0017766019 -0.0011652402 0.0016672494 0.001845073 -0.00145995 -0.0019380553 0.0018591532 0.0013984592 -0.000990685 -0.0015427225 0.0015395747 0.0005797685 0.001634356 -0.0015974212 -0.001878778 0.0005619644 -0.001935262 -0.0010480254 -0.00057129265 0.0020664935 0.0016459846 -0.00051861355 0.00104582 0.0017522014 -0.0005375708 0.0016879981 0.0014716248 0.00054111966 -0.0007967029 -0.0009926271 -0.00055372587 0.0013217917 -0.0012121382 -0.0004590243 0.0020752838 0.00083939463 0.001241917 -0.001604314 5.307573e-05 0.0011693526 -0.0010684482 0.0015786965 0.0020235968 -0.00018271038 -0.00041960308 0.000107778484 -0.0012407406 -0.0016978189 -0.00031074547 -0.0006153952 0.0011892383 -0.001569575 0.0011736066 -0.0013973934 -0.0015606849 0.0018326646 0.0019907244 -0.0004917311 0.0006773482 -0.0013194138 -0.0016503172 -0.00094016077 0.001456348 0.0013459976 0.0017074727 0.0015840813 0.0014762648 0.00024937338 -0.0019023238 0.00088032015 5.7234676e-05 0.0014944948 0.00044090257 -0.0006865097 0.0016589881 0.00029502073 -9.535476e-05 -0.0010152918 -0.001686841 -0.0015500061 0.0017592916 -0.0018418754 0.0018026648 -0.0018436318 -0.00023050372 -0.0004347219 -0.0018881147 0.0017484557 0.0013768536 0.0006521465 0.0007918855 0.00020323507 0.0020376483 0.0011875922 -0.0020361068 -0.0008786054 -0.00016792447 0.0007363643 -0.0007006278 2.3955563e-05 -0.0017093401 0.00046507246 0.0010482704 0.0009824092 -0.0005565724 -0.0019191393 -0.0021788888 0.000109296845 -0.0015376544 -0.0013426339 0.0010936931 0.0013647338 0.0005277937 -0.0016060508 -0.0012067364 0.0015886332 0.0008278982 -0.0009093744 -0.0016903573 0.00015522676 0.0008872718 0.00024389646 0.00076189445 -0.0009270306 -0.0020235346 -0.0015072211 7.4318596e-05 0.0011025734 0.001109691 0.0002756942 0.00089500105 -0.00019609489 0.00091558206 -0.0015157663 0.0015342325 0.0012348851 0.0010723977 0.001553809 0.0019149381 8.2947765e-05 -1.3263843e-06 -2.551639e-05 -0.0020124095 0.0016504342 -0.0013555153 0.0015978779 -0.00056469033 4.8042275e-05 -0.0017752922 -0.0019409931 -0.0016559882 -0.0016100251 -9.410308e-05 -0.0015947003 -0.001023381 -0.0012032582 -0.00068957 0.0013594553 0.0008889555 0.0018242497 0.0012972191 -0.0012332204 0.0016044454 -0.0017857197 -0.00066773815 -0.0015022343 0.00091988326 0.0005286362 0.0013893119 0.0006348631 -0.0015615762 0.0015533947 -0.001221538 0.0017407167 0.000524074 -0.00083560625 -0.0010422384 -0.00088438526 -0.0014033844 0.0018295128 -0.0006267265 0.0015150416 -0.001994817 0.0003878542 -0.00026149364 0.001362683 -0.002040544 0.0015531463 -0.0007568552 -0.0011605623 -0.0012399824 -0.0005319874 -0.00070445705 -0.0005370153 -0.0014872394 0.00024493915 8.8973364e-05 -0.0003418811 0.000613663 -0.0014864973 -0.00067931967 0.00090489024 0.0017297985 -0.0022342906 0.0011788185 0.0012590265 -0.0008468709 0.0015625206 -0.00184807 0.0012198703 0.0011626503 0.0001250885 -0.0010571264 -0.0007654817 -0.0006249687 0.0002201294 0.0003247273 0.0015344056 0.0017201125 0.0016149885 -0.00089773117 0.0017313699 -3.7162623e-05 0.0010726437 0.0007038093 -0.000393988 0.00071417517 -0.0011524527 -0.0010716756 -0.0016540522 0.0003189275 0.0013472557 0.00026941902 0.00014471402 0.0007209163 0.0014487172 -0.0015146984 0.00031333475 -0.0014844086 0.00085417595 0.001901392 0.00153055 0.0014387016 0.0014862318 0.0010436738 0.001237713 0.0016761883 -0.0011450495 0.0019343653 0.0009022171 -0.00058059517 0.0019026453 0.0009083364 0.0019418838 0.00063050614 0.0020698362 0.00042165862 0.0016617107 0.0010465097 0.0014348534 -0.0009507252 0.0013413569 0.0015061989 -0.0002270929 -0.00050103804 0.000692508 -0.001548044 0.0017984455 -0.0017828341 -0.001228877 0.000529685 0.0014954931 -0.0013423406 0.0005398728 0.001956824 -0.0013509308 -0.0013003651 -0.0010314244 -0.0008667431 0.00039973075 0.0018910659 0.0014641718 6.652132e-05 0.0005122436 0.0017373532 0.0019143386 0.0009959659 0.0013601073 -0.001539074 -0.00069023215 -0.0010364876 0.0011536006 -0.00038183533 -0.0018553012 0.0012940132 0.0018396277 -0.0006502358 0.0017974982 -7.042205e-05 -0.000705338 6.5861874e-05 -2.6125786e-05 -0.0007307306 0.0005678158 0.0013856412 0.0013585314 -0.0018244565 -0.0005117948 -0.0010713956 0.0015382214 0.0012682362 -0.00080519146 0.00031456695 -0.0015248478 3.5846362e-05 0.0020111585 -0.00037504334 -0.0010313567 -0.0015357402 -0.00072230434 -0.00022687363 0.00049801066 0.0019726905 -0.0007715139 0.00038502458 0.0018875648 0.00017228254 7.649353e-05 0.0020317263 0.0018083606 0.0018391355 -0.001338303 0.0019399453 0.0012512017 0.0017387467 -0.0007158022 0.00059110956 0.0013037353 -0.00095188833 0.0012989145 0.0004958082 0.0018612919 -0.0008091775 -0.00064962887 0.0011993736 -0.0017797633 -0.0014816626 -0.0012942497 -0.00030224738 -0.00011755695 0.001385201 0.001954376 -0.00013586438 0.00031538124 0.00054980954 -0.00033679817 -0.0014523657 0.0014720355 -0.00095727394 0.0008043066 0.0019132226 0.0007396884 0.0007594804 0.0009000063 -0.0006785579 0.0008733875 0.0002465042 0.00091477 0.0011193935 0.00016016801 0.0008623488 -0.0017767991 0.0011941984 0.0017878299 -0.000758877 0.00030259744 -0.00094983034 4.5623274e-05 0.00058648235 0.0014781838 1.1715353e-05 0.00063948584 0.0004937296 0.0018413074 -0.0010673116 -0.0011297757 -0.0007561656 -0.0003808477 0.0010682979 -0.0017493336 -0.00056215527 -0.0017708743 0.0010627246 -0.0006986863 -0.001878817 0.0008472547 0.0016360866 -0.0007629616 -0.0010470405 0.0005517908 -0.000102921746 -0.0020361019 0.0017301827 -0.0016066335 -0.0010271472 -0.00066757493 -0.0011136783 0.00055597397 0.002085737 0.0011303669 0.0015792362 0.0003588702 0.00013846162 -0.0004833733 -0.0017199045 0.00057158346 0.0003737715 -0.0019033042 -0.00094447035 -0.0019484932 -0.001265581 0.0008543041 0.0017389775 0.0006932396 0.0003835288 0.0015751316 -0.00033512132 -0.00013048909 -0.0017254619 -1.8006778e-05 -0.0005252805 4.876562e-05 0.0013116793 -0.0015968592 -0.0009965479 -0.001545372 -0.00058858347 -0.0009442363 0.00040996002 0.0008767843 -0.0009954846 -0.00068079936 0.00030497508 0.0012581042 0.001124739 -0.0007019456 -0.00090115017 -0.0012944102 -0.00026454678 0.0002959916 0.00041032248 0.0016180008 -0.0005670483 9.59293e-05 -0.00095560856 -0.0001581164 -0.0015640524 -0.00019293764 0.00017816188 -0.0015922071 0.001647263 -0.0016564559 -0.002046514 -0.0017945807 0.0012817634 0.0010386744 0.0016237414
killed 0.0004914034 0.00024609503 -0.0004246572 0.001928508 0.0005430666 0.00065726746 -0.00028633387 0.0003427329 0.0014404024 -0.000118724194 0.00057635916 -0.00011259715 0.0010586246 0.0008428563 0.000534009 -0.0011076136 -0.0009303208 0.00084820704 -0.0010610232 2.2843686e-05 -4.4815217e-05 0.0007371283 -0.0016673196 0.0018338013 -0.00028053336 -0.0010798471 0.0008565422 -0.00023316947 -0.0015603248 -0.00095763535 -2.5181516e-05 -0.001787466 0.00017637528 0.00042591 -0.0006780361 0.00051104417 0.0005780552 0.0020026888 0.00018104097 0.0003835427 0.00041150898 -0.00046827408 -0.0018564654 0.001579511 -0.00049695856 -0.0019166745 -0.0013711851 -0.00077265536 0.00095264777 0.0010052526 0.001182944 -0.0012271875 0.00023776243 -0.0006189407 -0.000985025 0.00135832 0.0008554087 -0.00067541824 -0.0017924114 -0.0010310275 -4.8344777e-05 0.0015757986 0.0011981188 -0.0016673942 -0.0020692972 0.0014360021 -0.00039441802 -0.0005887411 0.0012335932 -0.0011362929 0.0010379682 0.00011399326 -0.0013448881 -0.00015495079 0.0013176849 0.0019200114 0.00040036265 0.0009993839 -0.0008681216 -0.00022230728 -0.0010951238 0.00023823473 -0.00041621106 -0.0005196952 -0.0015045946 0.001991075 0.0005732389 -0.0004697643 -0.00075210235 0.0016772704 -0.0011692614 0.0005561593 7.781481e-05 0.0017597262 0.0014552873 -0.0005155452 0.0005213063 -0.0004452956 -0.0018189921 -0.00044111276 0.000247788 0.001318441 0.0019928962 0.0019355793 -0.0014655142 0.0013883514 -0.0012173561 -0.00011699484 7.8555946e-05 0.0012171026 0.00080741465 0.00093522796 0.0019113934 8.293948e-05 -0.0012367263 -0.0012675334 0.0012939266 -0.0011650887 -0.00065541005 0.0007779124 -0.00047157213 -0.0011483541 -0.00042631011 0.00015689315 0.00059846905 0.0012681193 -0.0011302736 0.0005949984 0.0014477232 0.00048060174 0.0011514908 -0.000866959 0.00106439 -0.0016075571 0.0006492421 -0.0017903454 -0.00050033466 -0.0017576717 -0.00043765217 -0.0012695447 -0.00062046177 0.0001929317 0.0005678646 -0.00039899407 -0.001716471 -0.0011307892 0.00015427556 -0.00082518306 -0.001855308 -0.00012140308 0.0013990959 0.0010795778 -0.002005118 0.0007040039 -0.001271192 -0.0017255158 0.00013429314 -9.476854e-05 -0.001448644 -0.0012426438 -0.00039314848 0.0015500204 -0.0015526466 0.0014639576 -0.00016913828 0.00023010085 0.0020779634 0.00094141165 -0.0006999749 0.0008046281 0.0008194277 0.0013929713 4.0557443e-06 -0.0006441399 0.00019969963 -0.001196852 0.00027813535 0.00091889204 0.0009849474 0.0019648338 -0.0015529091 -0.0010443481 0.0012842896 0.00018353884 -0.00139028 5.9892733e-05 0.000435056 -0.00053293456 -0.0010760226 0.0011341915 0.0018984054 -0.0015293392 7.125415e-05 -0.00056535547 -0.0013471843 -0.00015858708 -0.0010018046 0.0017023665 -0.0011793841 0.0007850801 5.167322e-05 0.0008598557 0.00042523822 0.0019046732 0.00011515054 -0.0011411938 -0.00029136558 0.0003792427 -0.0006790194 -0.0016150614 -0.0011095939 -0.001454685 0.001236589 0.0007223978 0.0016267493 0.0012832804 -0.001222699 0.0005535681 0.0016216052 0.00015566581 0.0006637065 0.001281801 -0.0017438673 0.0017291985 0.0014552806 0.0016661775 -0.0015813606 0.0012592319 0.0013665098 -0.00019268405 -0.0012544371 0.00096293475 -0.0013675384 -0.0010825613 0.0006187362 0.0016545821 0.0015759773 -0.0010104362 -0.0017247093 0.0019207391 0.001140174 -0.00079772726 -0.0017810372 -0.0008959001 -0.0009096995 -0.00064165564 0.0002195486 -2.5850219e-05 -0.00070180814 -0.0011830524 0.0019017905 -0.0010926104 -0.0015821179 0.0014731811 0.00035893483 0.00176884 -0.00079509796 -0.0012749729 3.2342283e-05 -0.00026272514 -0.001904724 -0.0002973861 0.00056469155 0.0012788967 0.0014056981 0.0007047495 -0.0009475528 -0.00034133432 -0.00090173085 0.0011432599 -0.0013384393 0.00045464747 -0.00021615163 -0.0011511191 -0.0014268873 0.0012815878 -0.0017291667 -0.0003147076 0.0004986693 0.001540787 -0.0015453191 0.00074095256 0.0018946999 -0.0015114333 -0.00059517956 0.0009545578 0.0010374455 0.0003639023 0.0016476952 0.00029493056 0.00028067917 -0.000116097486 -0.0015491621 0.0005356516 0.00041819035 -0.0016822446 -1.6385977e-05 -6.917375e-05 -4.4509463e-05 0.001640263 -0.0005711232 -0.0010922315 0.0015582208 -0.0014601192 -0.0016471271 -0.00053287804 -0.0016951066 0.00016246332 0.0004323784 -0.00056509016 -0.0012801379 -0.00015624306 -0.00016794664 0.0006847375 0.0017097902 0.0011952351 0.0016973575 -0.0017702256 0.0019660173 -0.00054337893 0.0018356286 0.00048720508 0.00078571634 -0.0018501875 -0.0019869595 0.0018370434 -0.00066389673 0.00043187354 0.0013874504 -7.697289e-05 0.0019475118 -0.00015942914 -0.0019352775 -0.0013212522 -0.00020603903 -0.001714875 0.0015452749 0.0008624303 -0.0017845823 0.0016994776 0.0017125906 0.0011708288 0.0013832871 -0.0019368554 0.00015683187 -0.0019198376 -0.0009067779 2.8233851e-05 -1.4565246e-06 0.00040062892 0.00068338175 0.00037206887 0.0009791472 0.0014614495 -0.0013172692 0.0016229948 0.0011611428 0.001997527 0.00088986126 -0.0007341606 -0.00081396144 -0.00013731113 -0.0003532331 0.0021664363 0.00014143455 0.0007958702 0.00074647315 -0.0018483873 0.0011590282 0.0016043636 -0.0003757226 0.00033476995 -0.0012834291 -0.0012040281 0.0016466548 -0.00073993206 0.0013487525 0.00025940692 -0.00033516495 0.0005988438 -0.0007968788 -0.00045381737 0.000514429 0.0009839928 -0.00021111828 0.00016595713 -0.0015441921 0.0020063973 -0.0017374181 0.001520912 0.00075224537 -0.0014640108 -0.0010953945 -0.0015412376 -0.00095578237 0.0014819878 0.0019625525 0.00034042037 0.00015698413 0.002027329 -0.0011152033 -0.000237488 0.0005105748 -0.0014339405 -0.0019193975 -0.001933616 0.0017544816 0.0011256371 -0.0009750922 -0.0015722738 0.00017660216 0.0006437957 -0.0003442075 0.00021165518 -0.00078607356 0.0010938515 0.00038580745 0.0018246813 -0.001964943 -0.0010314182 -0.0017635982 -3.6261845e-05 -0.0016255811 0.001036442 -0.0013022678 -0.0011807006 0.00093663094 -0.0016275495 0.00029743905 -0.0015233097 0.0018558878 0.0018112382 0.0003368413 0.0011086102 0.0009231415 -0.0011857987 0.0018343596 -0.001978291 0.0015473757 0.0005162847 -0.00048486397 -0.0006336986 0.0019021368 -0.0010876693 0.0018883159 -0.0012164885 0.0017276953 -8.2986684e-05 0.0015299431 -0.00065745204 0.0011658315 0.0017806073 0.00053724257 0.0001988956 0.0010314353 0.001615454 0.0016215115 0.0016145203 0.0013799703 0.001539068 0.001846231 1.1601963e-05 -0.00024187598 0.00031399378 8.218116e-06 4.8195638e-05 -0.0018289497 -0.0019970215 -0.0006017086 0.00185477 -0.0008918643 -0.0014158719 0.0011130093 0.00020523374 0.0005052547 0.00079668086 0.00081228884 0.0011544344 0.00021344294 0.00014455283 0.0017100421 0.00047649632 -0.001058696 0.0013469211 0.0011226062 0.00052251166 -0.0005574001 0.00074119313 0.0013003164 0.0013961988 0.00020158009 -0.0017765573 0.00010044281 -3.3882177e-05 0.0008998149 -0.0019850067 0.0018953151 -0.0014828342 0.0011080678 -0.0020114002
i 0.0019076884 0.0015034422 0.0002866538 -0.0006531567 -0.00011095582 7.1845016e-06 -0.0012706959 0.0012315824 0.0005090069 0.0007718662 -0.0014817534 0.0016970158 0.00011194233 -7.1821205e-06 -0.0018222119 0.0007748509 0.0013441052 0.0014509305 -0.001247396 -0.0015641352 -0.001079203 -0.000119454104 -0.0016471199 -0.001615333 -0.0003807964 0.00021932741 -0.0018684551 -0.0007019218 0.00010585299 0.0013242858 0.00036464696 -0.00011081327 -0.0014578069 -0.0013870888 -0.0001251601 0.0015076973 0.0011347254 -0.00031441767 0.00018108032 -0.0019312685 -0.00034663547 -0.00094738905 0.0011069482 -0.00046472665 -0.0009925527 -0.0018963736 -0.00025649328 -0.0014211832 -0.00026878947 -0.00079612265 -0.00049365254 -0.00062096934 -0.0015892801 -0.00026809965 0.0003488954 -0.0008470312 -0.0015014694 -0.0007466934 -0.0018684003 -0.00013842626 0.0012248368 -0.000610272 0.00065873784 0.0010096595 0.0016200038 0.0011297505 0.0019364863 -0.0018678923 -0.0015524295 -0.0013496843 -0.0014972348 -0.0015419648 -0.0015414129 -0.0006131854 0.00031083173 -0.0005301657 -0.0018005816 0.0010004007 0.00023382517 0.0009124411 0.0014346105 0.001535924 -0.00019191414 0.00082789676 -0.0010843899 0.00041094914 0.0009086781 0.001973241 -0.0006101777 0.00062172726 -0.0010988193 -0.00044123357 0.0015945681 -0.0007594791 -0.00019685272 -0.001830687 -0.0018843005 0.0017250143 -0.0010912673 0.0010494823 -0.0014036631 -0.00047035856 -0.0016115152 0.0015595264 0.0012844438 0.0010649472 0.0016527512 -0.00011314622 -0.0018708737 0.0017948548 -0.0010017585 0.001560294 0.0011068005 -0.0002018459 -0.0015550663 -0.0002839287 0.0012580223 -0.0014429119 0.0002658379 -0.0016143584 0.0017593289 -0.00056858873 0.0019167816 -0.001188225 -0.0018976884 -0.0016782278 -0.0008886407 0.00093465566 -4.2703636e-05 0.0018759223 0.0006624053 0.00078783184 0.0005401811 0.0015905772 -0.00051309564 0.001513641 -0.0019123022 0.00059230416 -0.00019184052 -4.688618e-06 0.0014378349 -0.00058541296 -0.00047083313 -6.711575e-05 -0.00011740166 -0.0006755322 0.0012344227 -0.0013373938 0.0015779926 -3.8799453e-06 0.0005666625 0.00059691624 -5.376062e-05 0.00039260366 -0.00068084453 0.001000519 0.00010485228 -0.0006717592 -0.0017753798 -0.0019956746 0.00010491452 -0.0011014552 -0.00024603316 -0.00088680774 -0.0017696939 0.00024470978 0.0012663457 -0.00044372442 -0.001424704 0.0006467701 -4.627444e-05 -0.0010460753 -0.00025088704 -3.358598e-05 -0.00066594564 -0.0020300318 0.0015123346 0.0007289504 -0.00052404276 0.0015405988 5.8972706e-05 0.001453936 -0.0003145322 0.0014847427 -2.399659e-05 -0.0012610676 -0.0009886539 0.0019031279 7.5299075e-05 0.00025570905 0.0016777597 -0.0012814251 -0.000329759 -0.0016628166 -0.0013615938 -0.0016866439 0.0008092488 0.0005148092 0.0011427586 0.00053879997 0.0004554783 0.0011449088 -0.00040047072 0.0005956851 0.0017040087 6.692737e-05 0.001250528 -0.0013648861 0.0012983214 0.0009082728 0.0010252299 -0.0020346777 -9.3521696e-05 0.0006179795 -0.0011763236 -0.0013607648 0.0012603 -0.0013747496 -0.0010749609 0.001561794 -0.0013804694 0.0017839065 0.00013795741 0.0008484771 -0.00055017474 -0.0010904231 -0.0017545373 -0.00011658175 -0.0009991206 -0.0005563554 0.001611869 -0.0015689352 -0.00124413 -0.0010585111 -0.0013571191 -0.0017637219 -0.0003034905 0.0018141201 0.0016613549 -0.0010739849 -0.0016566169 -0.00045377796 -0.0019163025 -0.0009875878 -0.0012187739 0.00058573176 -0.0014987378 0.00025584045 0.0004360587 0.0010704474 -0.0003808887 -0.002040507 0.001011309 -0.0012068846 0.000938706 0.0004157255 0.0017975817 0.00035972823 -0.00044154425 0.001294008 -0.0014304818 -0.0016596718 0.000721069 -0.00052135484 -0.00081200077 -0.00035134808 -0.0019960788 8.9019864e-05 -0.00026110632 -0.0005764242 0.00045506464 0.00093442114 0.0013168165 -0.0015998963 -0.000987914 -0.0017143289 -0.0018244407 -0.0008171655 -0.00028007402 -0.0016514849 -0.0011325233 -0.00040042345 0.001239367 0.0002653353 0.001721263 -0.00170244 -0.00090446015 -0.00014234186 0.0017905326 0.00026896436 0.00027200545 0.0003476654 0.0006237247 -0.0019427935 0.00066764175 0.0011070889 0.0011188193 0.00084583176 -0.0016200854 -0.00084303657 0.0016329365 -7.8345794e-05 -0.0018684197 0.0009587304 -0.0011453208 0.00125543 0.0010923094 -0.0009683302 0.00052248646 0.0010617264 -0.0007226253 -0.0003431392 0.0018294558 0.0018088788 -0.0018341583 0.001501437 0.001985551 -0.0005599387 0.00050876435 -0.0005975083 0.0017757626 -5.1037154e-05 0.0011393434 0.0018547721 0.000802256 -0.0014076991 -0.00041134903 0.00013376174 0.00045230924 0.00059694645 0.0019031424 0.00090229517 0.0019731743 -0.001696311 -0.0011682379 0.00039118604 0.00073544966 -0.00014224772 -0.0013923143 -0.00065024046 -0.0017183083 0.0018881838 0.0007629104 -0.001581055 0.00066134013 0.0007828119 -0.0012219253 -0.0011844246 0.00025287538 0.001830412 -0.0019314907 -1.0715017e-05 -0.0014200645 -0.0002024888 0.00054012384 -0.0009958384 -0.0005868278 0.0001239215 -0.0012892028 0.0014153539 0.00085002906 -0.0016806 -0.00043145256 0.00071251113 -0.001698958 -0.001417698 -0.0016602961 -0.0011244275 0.0016724652 0.0014018923 0.0005691576 -0.0017528518 0.0011477582 0.0009186561 2.422928e-05 -0.0018197851 -0.00038221327 2.8470695e-05 -0.0015351858 0.00047456488 0.00010269515 -0.0014527815 -0.0015714464 0.0012214635 -0.00164995 -0.0010939776 0.0011169185 -6.100286e-05 -0.00059355167 -0.0010031589 -0.0002523074 0.0010291934 -0.0012117344 -0.0009723767 -0.00095543795 -0.00091424875 -0.0015667353 -0.0019922985 0.0015528885 0.0016484869 -0.00091009104 -0.0018526876 -0.00044415827 -0.0008262781 0.001825666 0.0005576764 -0.0012121253 -0.0006481306 -0.001982657 0.00041439044 -0.00085102854 -0.000538171 0.0009833564 0.0014920712 0.00091111293 -0.0013022429 0.0013829567 -0.0019203369 -0.0013725873 -0.0016260882 -0.00043426867 0.00010564305 -0.0007969338 0.0003750121 0.0017879186 0.0013349073 -0.0002548238 0.0017949841 0.00031913986 -0.00043868413 -0.0013659094 0.001323714 -0.0018171006 -0.0003837443 0.0015249745 -0.0005075153 0.0002838431 -0.0014806166 0.00096096174 0.0014657428 -0.0017967531 -0.00062325556 0.0016387504 0.0005810265 0.00012596347 7.5035045e-05 -0.0019544028 0.0020098898 -0.00043401952 -0.0009988119 0.00055200496 0.00021322825 -0.001187461 0.0011290453 -0.00049075455 -0.0012304868 0.0014196672 0.001275992 0.0017486931 0.00020345252 0.00013212064 -0.001573166 0.00093332125 0.0018688195 -0.00014741263 -0.0003780804 -0.0008278243 -0.00015683641 -0.001591891 0.0011720605 0.00022413621 0.0018490072 -0.0012160002 -0.0010144227 -0.0011817295 -0.0014230054 0.0005995105 0.0009976067 0.00023054234 0.0006910367 -0.0019243951 -0.0002623529 -0.0015737652 0.0006224682 -0.0004983724 0.0017685599 -0.0006579537 0.0014223147 0.0008421634 0.00026931014 -1.0554769e-05 0.0016015788 0.0005271589 0.0016277817 0.0007195334 0.0010628833 0.0009959501 -0.0015779623 -0.0011777754 0.00020408549
follow -2.1732223e-05 0.0005419426 0.0003598093 0.0015813637 -0.00092045 -0.00016646566 0.0013387131 0.00068570493 0.0010252055 0.0008963155 -0.0003834939 -0.0016491462 0.00060886185 -0.001609368 -0.00051793945 -0.0019440065 -0.000110865105 -0.0016057494 0.0016533636 -0.00089979835 0.0020828946 -0.0017622449 -0.0008331071 0.00047171567 -0.0005798105 0.00026301094 -0.0006615862 1.0735013e-05 -0.0011834987 -0.0020433925 0.0013482579 8.6599364e-05 0.0013788661 -0.0015912433 0.00066849816 -0.0019773704 0.0016532142 0.0011867576 -0.0013844172 0.0016396545 -0.001313827 -0.0017655576 0.00011479451 0.00059165835 -0.0017563591 -0.0017607299 0.0017633651 0.0003639138 0.00043488777 0.0005026057 -0.00073275965 0.00049675204 0.0005454788 0.0018855152 -0.0010511534 0.0003925083 0.0013646912 -0.0014188945 -0.001993846 0.0017373366 0.0014893359 -0.00078275066 0.001177724 0.00019385171 -0.0012380718 -0.0002761206 -0.0008603579 0.0014523026 0.00048990763 -0.001640488 -6.505103e-06 -0.0002844047 0.0013720111 -0.00033006916 0.0015910842 0.0004953511 -0.00083873473 0.001624324 0.000782247 -0.0009084549 -0.0011646792 -0.0006215928 -0.0011029413 0.0009659366 -0.0020139087 -0.0010822754 0.00063270284 3.151877e-05 0.0012996987 -0.0005271791 0.00018296481 0.00041742297 0.00096952176 0.0004316137 0.0021015175 0.0008584755 -0.001405314 -0.0004590211 -0.0015451139 -0.0009529268 -0.00045502288 -0.0019162637 0.0018340448 0.0005599274 -5.4952816e-06 -0.0009942267 -0.0017864514 -0.0018745335 0.0017613338 -0.000642627 0.00080577336 -0.00086921407 0.001994898 0.0007550269 0.00015365212 -0.00081677694 0.0002528051 -0.00071474945 0.0013560215 0.0008021013 0.0001843959 0.0007503162 0.0007832752 -0.0015038924 0.0019935467 0.00044294243 -0.0013081209 0.0016738577 -0.00025380333 0.0017056736 -0.00016678093 0.0015474897 0.00029717953 -0.0010204804 -0.000845633 0.001955477 0.0003402139 -0.0011163424 -0.00011313033 -0.00069929066 0.0005591796 -0.0016110865 0.001496765 0.00013254116 0.0014729975 0.0009605466 -0.00089236925 0.000674383 -9.117662e-05 -0.0019578508 0.0017708297 0.0017574913 0.0018916174 -0.0006130352 -0.0018310506 0.0010998334 -0.0013672524 0.0016872663 0.00046475773 0.0011427714 0.0013729442 0.0002904245 -0.00050313177 3.9317725e-05 0.0018149881 -0.0013844873 -5.231406e-05 -0.0005087671 0.0009816681 0.0013509708 -0.0006653942 0.00093964307 -0.00091539655 0.0009658163 0.0015292444 0.0005565028 -0.0009278805 -0.00067666464 0.0015070966 0.0021551277 0.001095776 -0.000562675 -0.00038653135 -0.0013614963 -0.00092860515 0.00051902747 -0.0014141316 -0.0013460856 0.0014925698 0.0020893055 0.0016041895 0.00021409689 -0.0016466371 -0.0016172373 0.00021012731 -0.0017328565 -0.0014061049 0.0002559596 -0.00058168307 -0.0017546006 0.0014466379 -0.0017924004 -0.0014800217 -0.0004962095 0.00030773372 -0.00025655277 -0.0011126637 0.0012745088 0.0017390506 -0.0015791514 0.001967301 0.0013017848 -0.0015478082 -0.0004825054 0.0007989066 0.0013773686 -0.0007223087 -0.0013886439 0.0008252001 -0.002009747 -0.0010910706 -6.5251006e-05 0.001120295 -0.0012591339 0.0010928581 -0.00013611352 0.0006280818 0.0013160489 0.00037491287 0.0016677292 -7.018019e-05 -0.0018118935 0.001851679 -0.0009951772 0.000835813 -0.0007098917 -0.0016984021 -0.0015344627 0.0010982536 -0.00014855922 0.00012938719 -0.001809667 -0.0011846221 -0.001151962 0.0015484049 -0.0017256928 0.0010591749 -0.00010837374 -5.989941e-05 0.0017567435 -0.00069874566 -0.0015987203 2.8708973e-07 0.0014681758 0.0016010948 -0.00065796665 0.0006834373 0.001119919 -0.001301567 0.0013378777 -0.001361253 0.0004789963 0.00085441343 0.0008182945 -0.0008673072 0.00060825836 0.0013386813 0.0017576307 -0.0020771718 0.0011190551 0.00086203474 -0.00027775252 0.0019230685 -0.0008100488 -0.00032449895 -0.001223074 -0.0008769771 -0.00020260818 -0.00076563784 -0.0011353858 0.0011624261 -0.0009438412 -0.0013784951 0.0013508057 0.0021217254 0.00069883297 5.7244406e-06 0.0002023013 -0.00011174852 0.0015614094 -0.001400021 0.00037943362 0.0009865705 -0.00061234646 0.00017981279 0.0007890302 0.0021160354 0.00029792276 0.0018387748 -0.0013290718 0.0008559472 -0.00058303913 -0.0007662584 0.00020890306 -0.0006353839 -0.001373609 0.0006263756 0.0018067536 -0.0012692895 -0.0019095582 -0.0006570771 0.0013897442 -0.0018516355 0.0018867075 3.2306398e-05 0.0004849925 -0.00032446632 -0.0010915472 0.0007425391 0.0011428236 -0.0012629 -0.0002215495 0.000397614 0.0009400246 0.0013245324 -0.00067642494 0.0013287723 -0.0013106473 -0.0002742188 0.0018058297 0.001072053 -0.0016262326 -0.00033684904 -0.0016441647 -0.00032901086 0.0011563086 -0.0014271876 0.0013007226 0.0011584321 -0.00076011405 -0.002025119 -0.00048336928 -0.0004945831 0.0007147676 0.0018636263 0.0002513541 -0.0007183804 0.00055467605 -0.0012623634 -9.074173e-05 -0.00026487402 0.0018659227 -0.0012686278 -0.0014938003 0.00027790206 0.0005345601 -0.0014638002 -0.001130901 -0.00026379438 -0.00074899074 -0.0018688892 -0.0007824852 -0.0006248803 0.0015713798 8.165529e-05 0.00028982596 0.0001163583 -0.0007685816 0.00033124667 8.0345104e-05 0.0011500404 -0.00033500374 -0.0017654493 0.0001819698 0.0019965048 -0.0012499349 -0.0010242237 -0.0005536502 0.0017722972 -0.00019800925 0.0018898452 -0.0018082465 0.0021512103 -0.0019353913 0.0019262331 0.000431162 0.00056741154 -0.0010347835 0.0017383862 0.0013950479 -0.00114619 -0.0020157418 0.0013485794 -0.0010164079 -0.0017477243 0.00063319615 -0.0009302544 -0.0016255418 0.0020263884 -0.00013137504 -0.0005119355 -0.00079124444 -0.0010786577 -0.0011701909 -0.0011204957 -0.0011815064 -0.0016588108 0.002000756 0.00123963 -0.00060745486 0.0003538199 -0.0014484348 0.0013746108 0.0015924779 0.00025004867 -0.0011562714 -0.00044347555 0.0010312218 -0.0005413278 0.00064055715 0.001979619 0.0009125318 -0.0011311332 0.0011325747 -0.0006410054 -0.0012706016 0.0012542505 -0.0018736026 -0.00023245496 -0.00040308153 -0.0018484094 -9.665202e-05 0.0010750787 -0.0011126144 -0.0014043472 0.0012903997 -0.0008271594 -0.0016154248 -3.259584e-05 -5.7994435e-05 0.0016735321 0.00025808488 0.0017260902 -0.001984539 0.0012069169 0.0012126851 0.00027994427 -0.00051491865 0.00013099598 -0.00020375976 -0.0016619569 -0.0013161539 0.00023241159 -0.0005076383 0.0019537387 -0.00018243444 0.0010902386 0.00029950042 0.0015707626 -0.001948651 0.0006264829 -0.000263036 0.0003920118 -6.133853e-05 -0.0013423868 0.0016839143 -0.00073278224 0.00023144529 -0.0014945643 0.00087497005 0.0017403538 -0.00024104772 0.0015127598 -3.3490625e-05 0.0017699682 0.0020085126 5.5504617e-05 -0.0003106765 -0.0019618068 0.0019351484 -0.0006339024 0.00031068697 -0.0004898299 0.0017271038 0.0017837421 0.00025521943 0.00068503455 0.0014135826 0.00052022585 0.0012570459 4.059901e-05 -0.00054324593 0.0011673418 -0.0008029528 -0.00032224294 0.0016270713 -0.001914269 -0.00082922034 -0.00064025546 0.0009359587
rangers 0.0015320901 -0.0011202964 0.0013210027 3.883607e-05 -0.0018522826 -0.00081570254 -0.00035655472 -0.0005799031 4.448033e-05 -0.0010091985 0.0010187607 0.0018774767 -0.0003167651 0.00082796934 -9.721395e-05 -0.00026457504 -0.0014394589 0.00020900815 0.0010013495 0.0014888712 0.0014369915 0.00072530453 0.0010103739 -0.0013211479 -0.00024347514 -0.0011789197 0.0015114855 0.0017802992 -0.0009378582 0.00010212006 0.0011427478 0.00041539647 0.000286791 -0.0014922121 0.0019556605 -0.0014321231 -0.001049013 -0.0011591368 -0.0014721418 -0.00072548713 -0.0021820643 0.00019758062 -0.0009548997 -0.00055880635 0.00093143043 0.000717192 0.00022897712 -0.0001932028 0.0022915816 8.117085e-05 0.000933032 0.001963012 -0.0017455597 -0.001927471 0.0020914874 0.00040155617 -0.00025222736 0.00084918033 -0.0011164418 -0.0012922185 -0.0014756075 0.0014391631 -0.0004946435 -0.0014474201 -0.0014893996 0.0012791305 -0.00036684977 -0.0009541283 -0.00016071076 -0.0002620216 -0.00063060137 -0.00013206487 0.0009516465 0.00017451236 -0.00059607934 0.00067994144 0.0009417501 -0.0018802547 -0.0012393802 0.0011889826 -0.0018368238 0.00011574889 -0.0019420723 0.0020671526 -0.0010561044 -0.0012345288 -0.0003343939 -0.00021812101 0.0016343849 0.002065676 0.00018070356 0.00050261285 0.00076906505 0.00015808507 -0.0009694323 3.694278e-05 0.00047873534 0.0014298772 -0.0005261602 -0.0018332514 0.0010733921 0.002040719 -0.0014734928 5.768859e-05 -0.0007260888 0.0014124516 0.0018388255 7.594626e-05 0.0010254307 0.0011333692 0.0007886467 -0.0015967843 0.0006399285 -0.00026420504 -0.00050347554 0.0010513461 -0.00022972137 0.0017733895 -0.00020488906 -4.181437e-05 -0.0004465457 -0.0016550446 -0.0019108063 0.00079224113 -0.0010888143 0.00076248357 0.00029674458 -0.0014522262 -0.0005805105 -0.0011089611 -0.0015436601 0.00023837828 0.0016327678 -0.0014943095 -0.0009822956 0.001806239 0.0018627485 0.0020296809 -0.0022656308 0.0005926494 -0.0010446605 0.001318128 0.0012782429 -0.0008471451 0.001235846 -0.0014656213 0.00087646756 0.00083523494 0.0011929413 0.0011868536 -0.00037616445 0.0005487118 -0.0012653116 -0.0010698512 0.00033290964 -0.0017496719 0.00021326744 0.00018209904 0.0014650951 -0.0013804281 -0.00024710814 -0.00057849876 -0.0011701636 -0.00023345825 0.00070098904 -0.00090789056 2.0149037e-06 0.0016937864 -0.0002436197 -0.00064468646 0.0016595159 0.0005341637 -0.00015039851 0.0023365645 0.0014644545 0.0004937032 0.000641158 -0.0005338128 0.0015074282 0.0013351552 -0.0011740654 -0.0011236494 -0.00013072579 -0.0016529491 0.00058588566 -0.0020803094 -0.00048321547 0.0006636108 0.00042224166 0.0008637478 -0.0018539048 0.00060330686 0.0011828783 0.00059413136 0.0014661036 0.0005060381 0.0013418518 0.001579482 -0.00011081226 -5.129705e-05 0.00065186666 -0.0015344763 0.0011717371 -0.0012088267 -0.00063977484 -0.00041215034 0.0016023519 0.00036757876 -0.00019094841 -0.00068311684 -0.0004060465 -0.00045727892 -0.0010972914 -0.0009171707 -2.9984227e-05 0.00086959393 0.00035245065 0.0013639162 -6.315756e-05 -0.00093743077 -0.001368319 0.0015050968 0.0014583697 -0.0013876653 0.0011092699 0.0018561275 -0.0011340755 -0.00053869287 -0.0017075726 0.0008719754 -0.00068092125 0.00023592326 0.0019433055 -0.0017484006 -0.0020397375 0.00036206841 -0.00193451 -0.0021262944 -0.0016348826 -0.00015005429 -0.00041260416 0.00014078947 -0.00047786097 0.001930383 0.0015930453 -0.0012895692 0.0018313032 -0.0017151495 -0.00036552793 0.0005301609 2.1969305e-05 -0.0010818522 -7.30638e-05 8.8743975e-05 -0.0021304798 -0.00082409685 -0.0013863728 0.0009951387 -0.00047987723 -0.0015432964 0.0010497291 0.00013455411 0.00038263007 0.0010385397 -0.00076283416 0.0016994353 -0.0016941719 -0.00057621644 -0.001667648 0.00020817686 -0.0016682112 0.0018552917 0.0012432017 -0.0014686172 0.001253975 0.0014813399 -0.0016136658 0.000621783 -0.0017170926 0.0017971686 0.0007390614 9.790221e-05 -0.0019141065 -0.00034966358 0.00018189229 3.620948e-05 0.0017554262 -0.000503413 -0.0016013391 -0.001523577 -0.00042794913 0.0006365442 0.00016476041 -0.0007004447 0.0017115311 6.410245e-05 0.0015176825 0.00061274203 -0.0015042352 -0.00062205136 -0.001731779 -0.0011657291 -0.0005526384 0.0012931527 0.00012084646 0.0014292218 -0.00046527165 -0.00089661754 0.00081673457 0.00034641847 -7.438562e-05 -0.00064876635 -0.0011662912 0.0007592388 -0.0013270222 -0.0017724293 -0.001827626 0.0017676137 0.00088747754 0.0012532123 0.002184748 -0.0014536573 0.0008927656 0.0006814577 0.0011071687 -0.00061228813 0.0017519797 -0.0014464438 0.0016095932 0.0013586049 -9.4404495e-05 0.0010984504 0.001383598 0.0004664015 0.0014218932 0.00044470577 -0.0002676033 0.0017339813 0.00090472907 -0.00068302645 0.00023042833 3.8346298e-06 0.0010124727 -0.001156557 -0.00075698656 -0.00037526106 0.00039679676 -0.0012956265 0.0017048577 -0.0004197745 0.0011820687 0.000506963 0.0011878158 -0.0009561928 -0.00091070443 0.0006542021 -0.0006795977 0.0012052264 -0.001249074 0.00036850953 -0.00027291325 -6.393353e-05 0.0004658787 -8.07062e-05 -0.0010188627 -0.0017300246 0.00061684306 0.0009465804 -0.0015475897 0.0016952436 0.0007251142 -0.0012545238 -0.00025831696 0.00078346493 -0.0014252266 0.0001559268 0.0010800423 0.0011743669 0.0011739916 0.00069910596 -0.0005441257 -0.0014193739 0.002110662 -0.0014232076 -0.000187356 -0.00056950306 0.0013331964 -0.0010930919 0.00074891304 0.0006179134 -0.00081966596 -0.0017423916 -0.0017479783 0.00083976117 -0.0017341514 0.0012946137 -0.0004998841 -0.0020094607 -0.00091861404 0.0017371923 -0.0006117602 0.0013073971 -0.0021093301 -0.002150165 -0.0009874091 2.6638418e-05 -0.0015180133 -0.0017714704 -0.0018062372 2.8125687e-05 0.0012737423 -0.0016252178 -0.0012713902 0.00019830542 0.0008257095 -0.0014074296 0.0017460724 -0.0015688747 0.0010652535 0.0018588763 0.0012075155 0.0012933555 0.0015167611 0.00072840374 -0.0015550256 0.0011863476 -0.0018592424 -0.0011975726 0.0012418682 -0.0017571626 -0.0013857167 -0.0005708695 0.0006319201 0.0009797099 0.0003794846 0.0010788939 -0.0007068369 0.0008279191 -0.0015475606 -0.00035097607 -0.0012794638 0.00020197104 0.0011603223 0.00093021366 -0.000389523 0.00033494263 0.0016734988 -0.0010367171 -0.0009152992 -0.00017131111 -0.0009912383 0.0017897931 0.0015217094 0.0017076656 0.0019199552 -0.0017031545 -0.00024097755 -0.0016499785 -0.0010166176 -0.001895922 0.0008577265 9.934812e-05 -0.0013916341 0.0015725318 0.00013749383 -0.00010729657 -0.0009561423 -0.00092637475 -0.0007829329 0.0016654066 0.00012878238 -0.0010478427 0.0012074334 0.00018037844 -0.00026408426 0.0016421764 -0.0005750112 0.0015269174 -0.0009605058 -0.0015356074 -0.0010879604 -0.0009687018 -0.0002976981 -0.00022673167 0.0011576208 0.001060617 -0.00024191292 0.00094524416 -0.00029681352 0.00012822573 -0.00024993304 -0.00059089484 -0.00078150653 -0.00096968986 0.00030263007 0.00017848767 -0.0020354874 0.0010328378 -0.00041230643 -0.0008696286
me -0.0009836562 -0.0007686324 -0.0008715073 -0.0019028774 -0.00019351393 -0.0017607189 -0.0009841347 -0.0013012949 0.0021021033 -0.00024485777 -0.0016243554 0.001095847 -0.0016091517 -0.00029021502 0.0005662756 -0.0014871098 -0.0017897047 -0.001377494 0.0016072374 0.0018529264 0.00087779603 0.00049658085 0.00086516433 -0.0007140001 0.0019504137 0.0013545228 0.00090879755 0.0019056813 -0.0017092072 0.00011495725 0.0018309928 -0.00014592297 -0.0012889046 -0.0005445139 -0.0005798287 -0.00048875244 -0.00026526992 0.0014221303 -0.00018697529 0.0008208551 -0.00092706224 0.0016283835 -0.0014223428 -0.0018893728 -0.00094758737 -0.0014570315 -0.0010463776 0.00015047174 0.00064916065 0.00035841292 0.00096193526 -0.00020478059 0.00056801294 3.1957345e-05 0.0016221849 0.0015369743 -0.0003137839 0.00017485076 -0.0013435917 -0.0009459185 -0.0012970085 -1.1431772e-05 -0.0009786192 -0.000786916 0.00014721931 0.0005425187 -0.0017432614 0.0004970243 0.0011302194 0.00086141593 -0.00057426875 0.0020481534 0.0019345029 -7.43235e-05 0.00022698264 -0.0017545798 -0.0010393541 -3.0346617e-05 0.0009550976 -2.707e-05 -0.001764097 0.0011773402 -0.0015466354 0.001943265 0.0009900574 -0.0012661382 0.00053673453 0.0015270045 -0.0011405922 -0.0011660634 0.0019605604 0.00035871318 0.0018480159 -0.0019107737 -0.00019063195 0.001465229 -0.00024824723 -0.00046142456 -0.0012932756 -0.0010473462 -0.0013035465 0.001827397 -0.0003296741 -0.0015522913 0.0017533863 -0.00052694796 -0.00030796105 -6.739368e-05 0.0005503267 -0.001031171 -0.000100936195 -0.0005647934 0.0017494224 0.0014039364 0.00017146417 -0.0012357873 0.0006327695 0.00010298021 -0.0012643945 -0.0011998443 -0.0006098866 0.0004810953 -0.0015792713 -0.0011316902 0.0017564445 -0.00064505875 0.0014304873 8.643984e-05 -0.0010921019 -0.0009375511 5.595733e-05 0.0010385955 -0.0013699189 -0.00119501 -0.0014170886 0.0014260805 -0.00047136648 0.000847992 -0.00048381143 -0.0017007003 -8.1624596e-05 4.8722286e-05 0.0007468921 -0.0018321122 -0.0014390034 -0.0012374539 0.00058205606 -0.000779356 0.00020873509 0.00085872784 0.001005169 0.00033132793 -0.0005964146 0.00026670872 -0.0012028782 -0.0011744262 0.0018821998 -0.0008433454 -0.0019348402 0.00076280616 0.0018091928 9.03064e-05 0.00038506291 -0.00078156806 -0.0009547026 -0.0016725009 -0.0013641183 -0.0018366283 -0.0011879837 0.0017369592 0.001967292 -0.00019101534 -4.253876e-05 0.0017974441 0.00015879844 -0.0011405871 0.00050398894 0.00031259374 -0.00080227514 -0.00080653216 0.0018588866 0.0015647401 -0.0017247642 -0.0011459126 0.00024371459 6.448707e-05 -0.0017697713 0.001848902 -0.0011644247 0.0010367205 0.0018407997 0.00016034389 0.0009024299 -0.00060933875 -0.0020118938 0.00020505991 -0.00017353524 -0.002080697 0.001437179 -0.0014204847 0.0011297356 -0.0009109769 -0.0018100372 -0.0019349635 0.0012567565 -0.0010666791 0.0010231701 -0.0003544129 0.001922966 0.0013661677 0.001979342 0.0015529925 -0.0016085849 -0.0019691503 -0.0011380652 -0.00019071954 0.0009782547 0.0007243396 -0.0005033934 0.00083225104 -0.0006174509 -0.0012036066 0.00097127946 -0.0020657722 0.00028784276 -0.0010270431 0.0015828824 -0.00072795 0.00062605774 -0.0011213894 0.0019325799 -0.0012147625 0.0007434109 0.00063368864 0.0016997454 -0.0011050729 -0.0010503988 -0.0014125115 0.0013678158 -0.0009532837 0.00086904585 -0.00017545382 0.0013200744 -0.0011395902 -0.000111513335 -2.5838555e-05 -0.0016593 0.0017984834 -0.00049609935 0.0012965342 4.4061857e-05 0.0008345341 0.0003387329 0.0016892131 -0.0018038343 0.0017588786 0.001811908 0.0003322081 0.00072044815 0.00075117574 0.0007583943 -0.0005406138 0.00047651623 0.00011266146 0.0009927909 0.0017641884 -0.0016135821 9.255384e-05 -0.0018520023 -0.00029795105 -0.0019050281 0.0006263716 -0.00024207289 -0.00015316319 0.0012920155 -0.001508878 0.00015958815 -0.0006504569 -0.00083012995 -0.0014844846 -0.0017227512 0.001730551 -0.0015400413 0.0008420051 -0.00063520425 -0.00030316168 0.0005851154 -0.0016991675 -0.0010632977 -0.0014186759 -0.0019907348 -0.00073679886 -0.00054177945 -5.0067978e-05 -0.00014094665 -0.0015551826 -0.00063565536 -0.00064302713 -0.0013173999 -0.0013701284 -0.00060358486 -0.001468185 -0.0016210577 -0.001543765 0.0008559068 -0.0017129163 -0.00073331926 0.0014121794 0.0014927704 -0.0013309111 0.0013218608 -0.0016387174 2.318063e-05 0.0012943819 -0.00045449284 0.0018320943 -4.924117e-05 0.0009774348 0.0014540538 -0.0017901033 -0.0010900053 -0.0014485993 -0.00020685673 -0.0013778023 -6.213417e-05 -0.0015810865 2.9571645e-05 -0.00022489073 0.0014027206 -0.0017796635 -0.00061672 0.0012227285 0.0018713033 -0.00026951474 0.00013293691 -0.0012432229 0.00019814727 -0.0014804595 -0.0015517245 0.00026555246 -5.480773e-05 0.0011145922 -0.0019337089 0.000287158 0.00035310283 -0.0011472751 -0.00019714897 0.0012154146 -0.001235247 0.00016728915 0.00077925436 0.00030234392 0.00046763846 0.0015943946 0.0011955699 0.0007204176 0.0015333847 -0.001519909 0.0014906544 0.0006885002 -0.0012413515 -0.0007944305 0.0012651512 0.0013529017 -0.0020706216 0.00022487118 -6.27853e-06 8.8461515e-05 0.0012021726 -0.0015045693 0.0018942049 -0.0020195479 0.0012520867 0.0018896755 -0.00077041524 -0.0020160337 0.0012195184 -0.0018180164 -0.0016158093 -0.00017464686 -0.0013415456 0.0016577493 0.0018196641 0.00019980916 0.0016742315 0.0019999435 0.0010432198 0.00095656037 0.0011030985 0.0013900511 0.0009339524 0.0012079527 -0.0015577589 0.0018460695 0.0017649878 0.0019705973 -0.0017402965 -0.0007941381 -8.853666e-06 0.00094655587 -0.0018026992 3.7963695e-05 0.0010694597 0.0017299867 -0.0005473121 0.00027682865 0.0012232736 -0.0003214727 0.00037407587 -0.001799567 2.4411536e-05 0.00094665284 0.00079809886 -0.0020205642 -0.0009355939 0.0007479946 0.0004415507 -0.0008927957 0.0012238718 0.0006600806 -0.0015185849 0.0019774975 -0.0016137186 -0.00060361606 0.0018695781 0.0002417937 -0.0012028391 0.00018771338 -0.0007787995 -0.0014369321 -0.0016585604 0.0010359017 -0.0018375323 0.00078899093 -0.0011173782 0.0011059494 -0.0009850482 -0.0011443672 0.0011866646 -0.001744747 0.00041197435 -0.00031354907 -0.0012121627 -0.0015584122 0.0016616618 -0.00090670475 0.00096265826 -0.0018998315 0.00029075978 -0.00043653534 -0.0012040369 -0.000520878 -0.0017387605 -0.0007702105 -0.00049584004 -0.00045187402 -0.0010977031 -0.0018986649 0.0010460652 -0.00032832392 0.0013215492 0.00062740664 0.0017139203 -0.0007292253 -0.0018161738 0.00018156016 -0.0019303656 0.0010632017 0.001536298 0.00017181637 0.0013300242 0.0016959609 0.0009972104 0.001063795 0.0019856836 0.00028150465 -0.0015266907 -0.0016424677 -0.00041596638 -0.00016224274 0.0016410322 -0.0019678338 -0.0005902122 0.001896051 -0.00020177705 -0.0018230824 0.0004820317 -0.0010692547 -0.0010302971 -0.0012842277 4.329683e-05 0.0013610147 0.00091409165 0.0015731064 0.0019108831 0.0008165879 -0.0012852601 0.0012897297 -0.0019410077 -0.0011010859
sheriff 0.0015657606 0.0016836746 -0.0009807254 -0.0015394348 0.0015629722 -0.00094848755 -0.00082829845 0.0016084679 0.0012175336 0.00078928465 -0.00032191275 0.0017525919 0.0016933781 0.0014879606 0.0018228298 -0.0012204131 0.00017737751 -0.0003670161 0.0013885376 0.0020179374 0.0011364146 0.00082874857 0.0013398274 0.0012685924 4.8440706e-05 -0.0016960346 -0.00035058783 0.0019597895 -0.0010582069 0.000117944204 0.0010458677 -0.0013350261 0.0017096148 0.00022030133 0.00046968993 0.0016597554 0.0003937218 0.00015851094 -0.0020237898 0.001963417 -0.0021408242 0.0016836467 0.0008667085 -4.0433595e-05 -0.0017123508 0.0018679461 -0.0003463327 0.0010938691 -0.00038620958 -0.00097423134 2.6264981e-06 -0.0015052165 -0.0012255508 -0.0019342822 0.0011316815 2.6388709e-05 -0.00010170233 0.00095273735 -0.00056077144 -0.0014488554 0.0006524838 -0.001197822 7.9868936e-05 0.0019196838 -0.0003654672 0.001215741 0.0009759647 -0.0005463372 -0.0009614697 0.0017840707 0.00045473242 7.871399e-05 0.0002506302 -0.0010750713 0.0007402343 -0.0005385995 0.0007931431 -0.00095255655 1.0374353e-05 0.0006936651 -0.0014529333 -0.00052545476 -0.0018344575 0.0005437479 0.00028674217 0.0005400876 0.0001645211 -3.4164602e-06 0.0005377468 -3.677744e-05 0.0013254853 -0.00064300594 -0.0011133496 -0.0009638654 -0.0018208679 -0.0015175481 0.00043321852 0.00066249474 -0.0010565153 -0.0018336013 -0.0012445031 0.00094687886 -0.0018169712 0.0011254901 0.0014524008 0.0012882617 -0.0015884823 0.000666642 -0.0010734412 0.0016836277 -0.0009375011 -0.00047573028 0.0010445006 -0.00013176161 0.0009925853 -0.00085429987 0.0010194978 -0.0020572862 0.001148449 -0.0003176797 -0.0011249792 3.560099e-05 -0.00021431946 -0.00027360398 -0.00021150369 -0.0017458395 -0.0016989023 -0.001383357 -0.0016943477 -0.0008509678 0.001921103 -0.00023537637 -0.0017250956 -0.0012882078 0.00067902124 -0.0004712184 -0.00027708084 -0.00080011116 0.0010080199 -0.0018009355 -0.0013072784 0.0014614873 -0.0013714653 0.00033636845 -5.500423e-06 0.0020026718 0.0008208448 0.00036071514 0.00056200806 0.00047538726 0.0005108992 -0.00069024606 0.0008099464 0.0013669068 0.0016840732 -4.547148e-05 -9.07022e-05 0.0012836312 -0.001750252 -0.00011209034 -0.0011919618 0.0010931852 -0.001861376 0.0005765838 0.001686931 -0.00034589192 -0.0015357723 -0.0016467953 0.0006615635 -0.001017407 0.001388573 -7.2373994e-05 0.0015475516 0.0001628573 -0.0013396024 -0.0012733154 0.00013494883 -0.0009872591 0.0012619598 -0.0005310803 -0.0011720965 0.00022629596 -0.0009571322 -0.0017088312 -0.0011191518 -0.00050582347 -2.2671407e-05 0.0007204743 0.0012591633 0.0014649245 0.0011505232 1.0384037e-05 -0.0010856361 0.0017240418 -0.00019640005 0.0010518865 -0.00023217716 0.0010416223 0.0010647463 -0.0013884257 -0.00043198137 -2.799478e-06 0.00040046446 -0.001984481 0.00097394094 0.0006452323 -7.5496304e-05 -0.000738015 -0.0015425509 0.0014793251 -0.0017146758 -0.0015878759 0.0008510718 -0.001785476 -0.0006973444 -0.00042168834 -0.00038122392 -0.0013687474 0.0007472391 1.9941006e-05 0.000792226 -9.8661585e-05 0.0014117662 -0.0020145383 0.0012759012 -0.0010703368 0.00040266986 -0.0013563343 -0.0004273309 -0.0011326415 -0.0006686358 0.0018355974 0.0005447621 0.00028977045 -0.0013185287 0.0011442639 -0.0018314457 -0.0006257127 -0.0011545408 -0.0013212318 0.00033847897 -0.0006543124 0.0003527969 0.0008393134 -0.0013617522 -0.00034376967 -0.00046544446 -0.0019077299 -0.002053048 0.00023475692 0.000906578 -0.00013195399 -0.0010842375 0.00064912805 0.000177209 -0.0017959493 0.0015257248 0.0016787748 -0.0017102057 -0.00019305552 0.0011745982 -0.0005196348 -0.00015045216 -0.000872585 0.0012383348 0.001468807 0.0003392958 -0.00090671517 -0.0004863544 -0.00079510204 -0.002039338 0.0015866772 -5.4915537e-05 -0.00010405333 0.0014059811 -0.0017009584 0.0011928746 -0.0016870969 -0.0011688104 0.0009626994 -0.0008255514 -0.00061529 -0.0013286863 -0.0009016887 -0.00038736616 -0.00090179767 0.0018846084 0.0019321274 8.3299255e-08 9.6616124e-05 -0.0012357732 0.0017963033 -0.00086842134 0.0010236681 0.0018127717 0.0012069163 -6.015717e-05 0.0010016104 0.0013441923 -0.0009039 3.140715e-05 0.0014127532 0.0012225804 -7.327169e-05 0.0006722511 -0.0014954972 -0.0018891391 -0.00088053325 -0.0010559624 5.4203374e-05 -0.00081026094 -0.0001822078 0.0015691585 0.0019023736 0.0016898812 0.0005051639 -0.0005352676 0.00054761564 -0.000498598 -0.0018589706 0.0014957263 -0.0017342716 0.00079547137 -0.00069056085 -0.0011804864 -0.00017405392 -0.001380574 0.0015519087 -0.0012645687 -0.0017923109 0.0011416973 0.0009234165 0.00096368266 0.00058744196 -0.00076090585 -0.0010394574 0.00040791437 0.0018331344 -0.0011676066 -0.00047661614 0.00029325654 0.0013438198 -0.0012503421 -0.0009341714 -0.0004414403 0.0001479581 0.00088184595 0.001103126 -0.0016683026 0.0015704485 -0.00049816404 -0.00059976225 -0.001883711 -0.0011958537 0.0017367799 0.0006293427 -0.0016741905 0.00059807603 -0.0014463309 -0.0019069543 0.0006919401 0.00042206547 0.00022508852 0.0019850177 0.001162905 -0.0010132248 0.00062203687 0.0004432954 0.0002462684 0.0015944318 -0.001417877 -0.000581198 0.00020851429 0.0012713129 -0.00013855728 0.0014472875 -0.0009516055 -0.0018621533 -0.001349813 -0.00085156073 0.0019078329 -0.0011365842 -0.0006782815 0.0016733612 -0.0014118062 0.00043283144 0.0011755405 -0.0013989368 -1.8348697e-05 -0.00033800895 0.001094767 -0.00097108865 -0.0013957905 0.002050703 -0.0008062439 0.0016067647 -0.0016479905 0.0012932252 -0.0006177723 -0.0014468125 -0.0003906383 -0.00045612882 -0.0005092194 -0.00045422782 -0.0012826842 -0.0008146862 -0.00069069903 0.0015956613 0.0011665514 -0.0001058101 -0.0010760265 0.001090375 -0.0018807483 0.00028398124 0.0008953306 -0.00023550302 -0.0007952625 -0.0015959548 -0.0015937669 0.0014134911 0.00080150116 -2.0782774e-05 0.0018766746 -0.0016641229 3.2532334e-05 -8.07388e-05 -0.0017331921 -0.001834188 0.0014562964 -0.00079720415 -0.0016866372 0.0016792301 -0.001301589 -0.0006475452 0.00034876505 -0.0006525284 -0.0017238489 -0.00082445284 -0.001877351 0.0002678812 -0.0007537322 9.756236e-05 0.0006961102 -0.00048025747 0.0020817607 0.00138571 -6.215271e-05 -7.502056e-05 6.0999715e-05 0.0013068621 0.0017341148 -0.0003556376 -0.00032009662 -0.0006737077 0.00011780644 -0.0012782356 -0.00046155645 -0.0018059806 9.0785325e-05 0.00019571638 0.000866651 -0.00054233207 0.0011593153 -0.0014189511 0.0019633584 -1.6428108e-05 0.00034038254 0.0007352615 -9.24611e-05 0.0006244189 0.00013088502 -0.0019196697 -0.00046380959 -0.00054414826 -0.0016817376 0.0007512287 0.0010836206 -0.00038812627 0.0014103325 -0.0002937169 -0.00017297536 0.0010370096 -0.0017773212 -0.0013020379 0.0015402946 -0.0013218336 0.0017408045 0.0011778064 -0.001570016 0.0016761859 0.0012682551 -0.0014037004 -0.0016237561 -0.0018656064 0.0009024488 0.0011578298 -0.00051625 0.00015792274 -0.0017083986 -0.0011564597
went 0.0008937879 -0.0017348264 -0.00175676 0.00024606418 -0.0017289233 -0.0015472837 0.00089662784 0.0017701102 -0.001381931 0.0016497964 0.0017977832 0.0009458545 -0.00089173013 0.0020594944 -0.0015081428 -0.0008052612 0.0003954982 -0.0015619122 -0.0018781608 0.0006336048 0.0017141021 -0.0009772984 -0.0008240412 0.0008644317 0.00017447362 -0.0017188533 0.0013567968 -0.00050339266 0.0006745493 0.0005731828 0.0018031155 0.0017565652 0.0015347361 -0.0017309882 0.00021388859 -0.00018000328 0.00026788228 0.0017909207 0.0008402783 -0.001803102 0.0018120285 -0.00020962332 -2.6885667e-05 0.0009714848 -0.0013581952 -6.0026512e-05 0.00021427026 0.0014530871 0.0010370963 -0.00037108132 -0.0017368052 -0.00066123414 0.0018547231 -0.0019481506 0.00201465 -5.1768788e-05 -0.00017112566 0.0018657894 0.0017847824 0.0016680775 0.0018643456 -0.00198161 0.0015191771 -0.0018548733 -0.0016991026 -0.0017617987 0.0005122265 0.001598047 -0.0011638701 -0.0005240058 -0.00045613537 -0.0007158536 -0.00023626951 0.00089654746 0.000775151 -0.00057630317 -0.0007638887 -0.00048761003 -0.00050588785 0.00072455924 0.001912115 0.001575431 -0.0015323227 -0.0011089781 -0.0019414233 -0.0011353055 0.00071273564 -0.0011966699 0.00040220006 0.0019321654 0.0007916458 0.00018907043 0.0016956908 0.0013713065 -0.0002007701 -0.0011327825 -0.0001989983 0.0013253387 0.0015751191 -0.0007358332 0.0019770856 0.00050530303 0.0010128751 -0.001025124 0.0010145582 0.0001474595 -0.0020266606 0.001101162 -0.0018288357 -0.0013907548 0.00046840496 0.0018849097 -0.00042165184 0.0014178839 0.0009998473 0.0008088503 -0.0012371998 0.0008822263 -0.0017561478 -0.0009074067 0.0010887933 -0.0016204725 0.0012026078 -0.0008066049 0.00016069617 -0.0014038368 -0.0013781711 -0.0006895792 0.0017290364 0.0011212295 -0.0018367228 -0.0012101461 0.0005236445 -0.0018178578 0.0013142154 0.0013135109 -0.0018368766 0.001821712 0.0014560503 -0.0005633389 0.0005093364 -0.0011659449 0.0012455932 0.0014689553 0.00071654265 -0.0017218639 0.0009974154 -0.0006517882 -0.00042880303 0.0012481516 0.00043296462 0.00080998015 -0.0012862574 0.0011398552 -0.00078496407 9.700615e-06 0.0013481268 0.00082941086 0.0014553525 -0.0007737914 0.00081567443 0.0016172412 -0.00073082047 0.0010689226 -0.0019639768 0.0018020914 0.00091834605 0.0010650378 0.000924048 0.0009795978 -0.0005344073 -0.0010978974 -0.00046766485 0.00048359358 -0.0006489839 -0.0018336315 -0.0012656489 0.0016101286 0.0018280708 0.0013313573 -0.0008689875 0.00018421662 -0.0017276686 0.0012442842 4.8334296e-05 0.0013550157 -0.0011595879 -0.0005758388 0.0005054582 0.0008287734 -0.0013099521 -0.0015473508 0.00049403426 -0.0018734058 0.0010963625 0.0012259076 -0.00072670006 -0.0012179601 -0.0016853248 -0.00031738472 0.0015009501 -3.0584783e-05 -0.0016043895 0.0016834846 -0.0017315138 0.0011017735 0.0012418075 0.0001614101 -0.0017533144 0.0011818599 -0.0015892988 -0.0011148698 0.0019177718 -0.0017008273 -0.0015485054 -0.000999436 0.0006905332 0.0003987351 -0.0011963021 -0.000817064 0.0017751226 0.0020900858 0.002004931 0.00011972566 0.00091439136 0.00022470346 0.00039210697 0.0009886095 0.0004728713 0.00013728483 -0.00063089374 -0.0013907502 0.0015914894 -0.0012287803 0.0004547683 -0.00014601661 -0.00088133494 -0.001130543 0.0007704091 -0.0011970922 -0.0016176804 -0.00053848914 0.0008466654 0.001250883 -0.00040083588 0.0014599533 -0.0014654347 -0.0009104287 -0.0016621643 -0.0012176587 0.001472213 -0.0020143227 -0.001869264 -0.002026851 0.00168689 -0.00049007207 0.00029984416 -0.0011494207 -0.0006815613 -2.30322e-05 -0.00054769305 -0.0014427695 -0.0012896609 0.00046477487 -0.0018769846 0.00029888793 -0.0004476929 0.0016640477 -0.00021457548 0.0012588188 -0.0015030105 -0.0014650567 0.0011657203 0.00020358562 -0.0010120455 -0.00041587563 0.0016910348 -0.0020065529 -0.0008227209 0.00018753465 -0.00015197291 0.0019772118 -0.00047429674 -0.0015041514 -0.0014218574 -0.0020450228 -0.0015319241 -0.0011841544 -0.0011105395 -0.00015731694 -0.00020575784 -0.00074599276 0.0005170753 0.00064112677 0.0018046137 -0.00089818315 0.0011341693 0.0013704515 -0.0007927058 -0.0016071809 -0.00075422163 -0.0012743151 0.0013727844 0.0018411248 0.0017915163 -0.0018924657 0.0009923439 0.0011067942 0.0011671239 -0.0017169714 5.082814e-06 -0.0014425332 -0.0017175314 0.00048094022 0.0021073997 0.0013286908 -0.0013991976 0.0005149681 -0.00070873107 0.001929488 -0.0016550663 0.001966239 -0.0012416481 -0.0013224785 0.000235858 -0.00010293904 -0.0017935676 -0.0002299783 3.3677097e-05 -0.001263616 0.0011455345 0.0006926518 0.0016990986 0.0015614711 -0.0013374381 0.00097475655 0.0011839061 0.0013033097 0.0010091249 -0.0009754994 0.00080160616 0.00027013806 2.4180279e-05 -0.0013271581 0.00036659365 0.00096882944 -0.0020214345 0.0017151384 0.00066806487 0.00010541135 -0.0006528939 9.328436e-06 0.0011197949 0.00090429414 -0.0013300438 0.00159661 -0.00015623978 -0.001602972 0.0017326744 0.0009340629 0.0006647681 0.0015957487 -0.0015215649 -0.0009882685 -0.00047258756 -0.000824342 -0.00025733715 -0.00016990145 -0.0018710165 0.0003331049 0.00046511064 -0.00029373926 0.00096431875 0.00031606815 0.001194635 -0.0005837398 0.0016952894 -0.00036661146 0.00065697497 -0.0007616692 0.0012465632 0.0005207138 0.00038571266 0.001801841 -0.0015058301 0.0019637474 0.00018269816 -0.00035362417 -0.00080527505 -0.0017199948 -0.00046673822 0.00046206012 0.0012748898 0.0018655696 -0.0016600913 0.0019104943 -0.0017034523 0.000661465 0.0016237388 -0.0004036461 -0.0017222487 -0.0016425867 7.8296165e-05 -0.00029447518 -0.0018955226 0.00054003834 0.00043031617 0.0009720616 0.00086088944 0.0007299231 -0.002046421 0.0012193344 0.0007174926 -0.001603405 -0.00036937156 0.00019914596 -4.89315e-05 -0.00016177796 -0.0011051763 3.7776037e-05 0.0009547538 -0.000114782844 7.744432e-05 0.0004784123 -0.00081424 -0.0015588432 0.0017392745 -0.0019662986 -0.00048355453 -0.00030558297 -0.0016293176 0.00045896161 0.0015614295 -0.0003597268 0.0016303445 6.9708556e-05 -0.0012723287 -0.00044236603 -0.00021787456 0.0012396299 0.0015151799 0.0013303113 -0.0010973372 -0.001419784 0.0014931227 0.0004686158 0.0011434103 0.00013172512 0.0015188297 -0.0018112133 0.0019784605 -0.0016214704 -0.00034568313 0.0011955983 -0.0018320669 0.0008851255 -0.0014916114 -0.0014509069 0.0004391401 0.0002771372 -0.00044069567 0.0015792821 -0.0014426751 8.127005e-05 0.0017461426 0.0003046246 -0.0014719837 0.0006224876 -0.0011394771 0.00020619044 0.00039195473 0.0015103717 0.0016240564 -0.0009895369 0.002040985 -0.0010608898 0.0016444267 -0.0015836857 -0.0015880305 -0.00025426917 -0.0017351329 -0.0007858322 -0.00020571915 3.378892e-05 -0.0019377213 -0.0013567806 -0.0013988868 7.25093e-06 0.0010675864 -3.7450904e-05 0.002027532 -0.0008424774 0.0016806225 0.0011128513 0.0017739066 -7.406651e-05 -0.00013370258 0.00029389883 -0.0020231637 0.0016922017
surrender -0.00053482765 0.0016035043 0.00052837055 0.0006562302 -0.00029182233 -0.0022011453 0.0002677094 0.00080084725 -0.0018438974 -0.00073680416 -0.0005891828 -0.0009947123 0.0008151364 0.0005393289 0.0009033267 -0.0013490346 -0.001219028 0.0008939834 0.0015010542 0.0011542179 0.0010434282 -0.0014443735 0.0016764905 -0.0013146942 -0.0015463656 0.0016827687 -0.00039404168 -0.0017538776 -0.00066175015 0.0011127222 -0.0005204031 0.0010350641 9.069808e-05 0.00073002384 0.00022626903 -0.001853046 -0.0006064681 0.0017384348 0.00017964898 -0.0011973825 0.0012009259 0.0014466087 0.0013183224 -2.3282346e-05 -0.001968795 -0.00068057305 0.0009647908 -0.0012877763 0.0021418107 -0.0019160276 -0.0016890347 -0.00096505316 0.0012973836 -0.0015884037 0.0017847173 -0.0020732093 0.00079608045 0.00060876214 -0.00014787936 0.0019282511 0.0011404245 3.9689738e-05 0.0009812374 0.0013183274 0.00040584078 0.001910348 -0.0001888199 -0.0014820839 -0.00076114037 -0.00026282063 -0.0014424205 -0.00015716656 0.001647288 -0.0011002123 0.0010974447 0.000990576 -0.00021017126 0.00023595832 0.0013296773 -0.0013912424 0.0007677912 0.0017826731 -0.0007931664 -0.0012851093 -0.0019844738 -0.0017218594 0.0007461999 0.0010089243 0.001522321 -0.000115613155 0.00035201054 0.00062066515 -0.0020992977 -0.001792427 0.0010363236 -0.0015997627 -0.00059983315 -0.0009822003 0.001334758 -0.000599086 0.001992343 0.00016747344 -0.0010506738 -0.000622291 0.00040280572 -0.0010261912 0.0014659534 0.0018720796 0.00087071187 -0.0015619027 -0.0012655914 3.3051592e-06 -0.0002037116 -0.0011031379 0.0015501059 0.00123372 -0.00082986546 0.0003459921 0.0009705128 0.00040343517 0.0017286914 -0.00026135286 -0.0012797039 -0.0003160158 -0.0015255267 0.0020786445 -0.001868373 -0.00037160082 -0.00056546606 0.00069408957 0.0010878163 -0.0015100754 -0.001095067 -1.3955697e-05 0.000729289 0.0011134003 -0.00026388047 -4.751641e-05 -0.0017423169 0.0006553469 -0.0013507523 0.000598176 -0.00067262107 -0.0016701159 0.0013246333 -2.394202e-05 -0.0019194297 -0.0019141203 0.000106729014 -0.0016020811 0.00085646694 0.0005334627 0.0006661774 -0.0009830263 0.0014549509 -0.0016880399 0.0016408737 -0.00014799983 -0.00037827622 0.00083655235 -0.0003751699 -0.0007053281 -0.00055638177 -0.0013366772 -0.0002012229 -0.0010042299 0.00116165 -0.0018969469 -0.0008599702 -0.0017977844 -0.0018464844 3.8180668e-05 -0.0016664171 -0.00087426003 0.00046301837 -0.00041024067 0.0006044018 0.0015751978 -0.0019886736 0.0014348957 -0.0016447096 0.001339462 0.001480937 0.001651999 -0.0016440409 0.00052401394 -0.0016814602 -0.0002640439 -0.0011593611 -0.0015740219 0.0009549534 0.0008265404 -0.0007342641 -0.0016478343 0.0006510679 -0.0006676414 -0.0016966006 -0.0010053655 -0.00038429152 0.0018304195 -0.0011689623 0.0014558889 0.0012356024 -0.0011234332 -0.00033319587 -0.0005110237 0.0005947085 -0.00013412173 -0.0005973323 -0.0019141915 0.0012990847 -0.0020479737 -0.0017616345 0.00020723855 0.00056506664 -3.213298e-05 5.6720193e-05 0.0005129695 0.00025093555 0.0013276478 -0.0006451486 -0.001243092 -0.0015337223 0.0015074356 0.00049345254 -0.0011720752 0.0013528209 0.0017106864 0.0016971346 -0.0012078255 -0.0010166318 -0.0004951644 -0.0013100689 0.00091231655 0.0010337894 -0.0011945526 0.0012144356 -0.0017299869 0.0014062413 -0.00096907694 0.00026923907 -0.00066532806 0.00050402584 0.0016305745 -0.00036760533 -0.0009924717 -0.0016596562 0.0007466444 0.0007716489 0.0013537493 -0.00081014883 -0.002163593 0.001228834 -0.0009776762 0.0007406902 0.0016653879 -0.00070383213 0.0004697248 -0.0009252338 -0.0013412791 -0.0012031799 1.6273241e-05 -0.001612302 -0.0004530111 -0.00049466157 0.0014075909 0.00019433795 0.0012472545 0.00062298053 -0.00070658565 -0.0011228105 0.0019276877 0.0015046325 -0.0018096854 0.0010727498 0.0017344579 0.0017453607 -0.00181807 -0.0005130669 0.00018485301 0.00048508978 -0.000254565 -0.0010115273 0.0011622189 0.001538264 -0.00015646467 -0.0011552661 -0.00082939473 -0.0009541961 0.0010060607 -2.6623837e-05 -0.0002275696 -0.001731728 -0.00047360105 0.0012833265 0.0013041818 0.0009916236 -0.0006845863 0.0017836617 1.2449793e-05 0.00011518432 0.0013615872 -0.0012679687 0.0012879965 0.0021293901 0.0005231387 0.0006638574 0.0009530668 -0.00038994887 -0.0016983766 0.00027562093 7.5190444e-05 -0.0013474909 0.0003675193 0.0012106354 -0.0014640009 0.000506972 0.0015981528 -0.0016301747 0.0005832953 -0.001590435 -0.001598938 0.0014892548 -0.001457536 -0.00033128884 -0.001516161 -0.0016465674 -0.0016283337 0.00019978957 0.0003901063 -0.0015867113 -0.001559976 -0.00063866173 -0.00027880806 -0.0012686804 -0.0008787299 0.00074533705 0.0007928794 0.0013039119 0.0008123345 -0.00020937064 0.00057076354 0.0018339745 0.00034720876 0.00041191714 0.00013593768 -0.0021278271 0.0010502245 0.0011111713 0.00012508577 0.0018479495 -0.0011745262 0.0005234867 -0.0016026692 -0.001957251 0.00041384157 0.000887863 0.0012253653 -0.0017769154 0.000758403 0.0004078562 0.0008894366 -0.00017492943 0.001335757 0.0013859045 -0.001717831 -0.0019122413 0.0013414865 -0.00044774046 -0.0019293698 -0.0008625598 0.000105121835 0.0016636627 -0.0003410834 -0.00019755414 -0.001635243 -0.0015502189 0.00026955138 -5.3797092e-05 -0.001560391 0.00018932478 -0.0019134666 -0.00021804761 0.00085561763 0.0003075336 0.0015929957 0.0013450236 -0.00015450678 0.0010442392 0.0013515905 0.0017344545 0.0017597923 0.0009092557 0.0010006699 0.0015138561 -0.0002197905 -0.0010723474 0.0016645532 0.00032317304 -0.0008618992 -0.0003511073 -0.0010412614 0.0016567425 0.0004551856 0.0008766383 0.0012055109 0.0016053318 -0.0008742591 -0.0012945273 -0.00066762354 -0.00089871313 -0.0018772861 -0.00022301625 -0.0016823794 0.0020688402 -0.000520376 -0.0011525376 -0.0015646776 -0.0006133653 -0.0019337396 0.0002013729 0.0011302792 -0.00066310883 0.0015504543 -0.00044250058 -0.0014214134 -0.000775887 -0.0006694163 -0.0013894874 -0.002073621 -0.0009456987 -0.00022444216 0.0009815925 -0.0015497468 -0.0010291251 0.0003252515 -0.00042935528 0.0006791415 -0.0004624984 0.0008346716 0.0017602161 -0.0014815446 0.0009293145 0.0011520874 0.00023868804 0.0013578701 -0.0010219624 -0.00089881173 -0.0016603809 0.0018603742 -0.0018790205 -0.0006245144 -9.418204e-05 -0.0010660291 0.0019209912 -0.0013575946 -0.0017096512 0.0017892028 -0.0016984761 0.001857653 -0.0006969704 0.0011765304 -0.00010703005 -0.00081930746 -0.0015324935 -0.0013485497 0.0012272611 0.0011059687 -0.00011406838 0.0013601109 0.00055408594 0.0007602741 0.0007055312 -0.0019730271 0.0020226194 -0.0016051315 -0.00049503066 0.00032176508 0.0009709703 -0.0018805113 0.00020369096 0.0011589982 -0.0018352742 0.0019920906 -0.00091331167 0.0018932862 -0.00123617 0.0014197313 0.0019261461 -0.0018728852 7.637273e-05 -0.0016398688 0.0017236287 0.0018565459 -0.0010609844 6.823895e-05 -0.0005278822 -0.0017009533 9.923575e-05 -0.00214589
it 0.0004959495 -0.0014701114 0.0012272666 0.0015346856 -0.00052850664 -0.0009479275 -0.0019156176 0.001107739 0.0006968305 0.0017557268 0.0005999378 -0.00058042334 0.00071314233 0.001804492 0.0018713245 0.0014815902 -0.0017214301 -0.0015517208 0.0015362113 -0.0014413724 0.0007344879 0.0016461168 -0.0005908047 0.0014346668 -0.0016010369 0.0012686629 0.0011865966 0.00076740043 -0.0016566692 0.0017817122 0.0016963179 -0.0003057721 0.0008812167 0.0012073856 -0.00036447254 0.0011100909 -0.0007338534 -0.00027468544 -0.00034243133 -0.000848301 -0.00027400494 -0.0015813198 0.00061188464 0.0017840384 0.0008681943 0.0012896176 -0.0010014009 0.0010026942 -0.0011830515 -0.00097313547 0.0019592557 0.0013670324 -0.00093306636 -0.0012409242 0.0014928546 0.0004817401 0.0013785913 -0.0014205514 -0.00032269725 -0.00016896284 1.0622409e-05 0.00045468917 -0.0013443547 0.00088237325 -0.0006920948 0.0016775164 -0.0001359475 0.0019465479 -0.00010797992 0.0010360277 -0.0014968605 -0.0016646837 -2.9793087e-05 -0.0005349061 0.0020387007 0.0009590794 -0.0011311901 0.0014602944 0.00023229005 -0.0019730206 0.0011228758 -0.00040156153 -0.0019351885 0.0018959048 0.0013464194 0.001748781 3.7556783e-05 0.0015320394 0.0010991466 -0.001293061 0.0019721573 -0.0007530697 -0.0020150638 0.0017675452 -0.00096607435 0.0017567661 -0.0015473899 0.0017449479 -0.0011055392 0.00087709783 0.0019341698 0.0008788929 -0.00044154061 -0.0008837988 -0.0018135074 0.00090449915 0.0014408593 -0.00087364914 0.0011918605 0.0012843366 -0.0018617715 0.00040831283 -0.0013638153 -0.00082252664 0.00014533155 -0.0014104046 -0.0008150672 -0.0015951837 -0.0014564311 -0.001453754 0.0019865015 0.0016931393 -3.95144e-06 -0.000619956 0.0013621816 0.0003482942 -0.0019102013 -0.001432487 0.00021876094 0.0016283857 0.0007271194 0.0020556937 0.001154507 -2.7031367e-05 0.0016811746 0.0018715613 0.0016173595 0.0019267842 -0.002006855 0.00051980105 -0.0014085692 -0.0014701672 -0.001689974 0.0005603127 -7.329942e-05 -0.0012135238 0.0010953586 0.0015373385 0.0008711614 0.0015805289 -0.0007962894 -0.0014035581 0.0007760295 -0.0004908106 -0.0015239131 0.00082091504 -0.00053997914 -0.0010654134 0.0004798009 0.0013866429 0.0013735377 0.00013574431 0.0016890567 0.000514969 0.0012331395 -0.00014172737 0.00056816847 0.0012276288 -0.0019438695 0.0011945971 0.00033728522 0.0013539806 -0.00030453326 -0.0003221938 -0.0011850971 -0.00067196524 -0.0005288669 -0.0010730906 0.00016558351 0.001730177 0.000961708 -0.0014963022 -0.0014774589 -0.0006528973 0.0007268082 -0.001974678 0.0011525936 0.0006039817 -0.00064783305 0.0019384513 0.001595244 0.00011666378 0.0010334272 -0.0019294525 -0.0018115771 -0.0005103639 0.0018894072 0.0005624659 0.0011230038 -0.0012960604 0.00093201717 7.6866956e-05 -0.0001762647 -0.00074702036 0.0009934795 -0.0018381788 0.0009880855 0.0011151597 -0.0005023249 -0.00087211386 -0.0014846721 -0.0013727844 -0.001045635 0.0005808738 -0.0009957867 -0.00024723244 -0.0017881101 -0.00069093145 -0.0002527261 -0.0016996077 0.0006870156 0.0020749364 0.000898541 0.0002837811 -0.00087365106 -0.0002523446 0.0005026666 0.0003568792 0.0018146412 -8.404981e-05 0.0014063107 0.0010690538 0.00061862846 0.0014268814 -0.0010727416 -0.00077933125 0.001228091 0.0015860116 0.0007237598 -0.00084027887 0.0014307715 0.00055528164 -0.00014157363 0.001806687 0.0007766545 0.0007882973 4.3011572e-05 -0.0017485287 -0.00069744466 0.00049453496 -0.0010986422 0.0012798955 0.0014100092 -0.0018419225 -0.0012254004 -0.0011487298 -7.029208e-05 -0.0002640037 -0.0005412309 -0.0004732789 0.00070293463 0.0019536149 -0.00096812675 -0.0016696651 0.0007734079 -0.0012373965 0.0012914719 0.00056101085 -0.0016787695 -0.0015561847 -0.0019163584 0.00048658875 0.00060692476 0.0005412998 5.6351844e-05 0.000312133 0.0005480075 -0.00046233786 -0.001687455 -0.00013883268 0.0006339187 -0.0004718449 -0.0004951088 -0.0005272529 0.0015621899 -0.00067033485 0.0018874926 -0.0007499157 -0.0019188721 -0.0011914757 -0.00095804303 0.00042373338 0.0011054154 0.00031804212 0.001817022 0.0002258252 0.001231956 -2.6162701e-05 -0.0004559301 0.0011530692 0.00031098982 0.0017527834 -0.0016239497 -0.0017727588 7.674512e-06 -0.0005282222 -0.0004844624 -5.504645e-05 -0.0009787225 -0.0016351388 0.001650954 -0.0007362274 -0.0005107148 -0.0003641806 -0.00016499653 -0.0018359774 -0.00032947698 -0.0002359685 0.0017708874 -0.0016560053 -0.0008551636 -0.00037815707 0.0006251027 -0.0011260334 -0.001173805 -0.0015542037 0.0010601257 -0.0018631449 -0.0005544599 4.9871287e-05 0.00026187763 -0.0019433172 0.0017366807 -0.00032639725 6.540686e-05 -0.0017668337 -0.0015981839 0.0008739126 0.0007629091 0.0005864142 0.0011166779 -0.0013591683 -0.00021889101 -0.00055773754 -0.00021677176 0.0008031275 0.00012446787 -0.0014941033 0.00069615006 0.0013394089 -0.0012291914 0.00062820554 -0.0009351834 0.0017352959 0.00071935786 0.00041756447 -0.00024181756 -0.0018002146 0.0017110491 -0.00044862457 0.0014208638 0.00077776937 -0.0016770617 5.507002e-05 0.00046996953 -0.0005126329 0.0019999747 -0.0010457695 -0.0016029382 0.00070369686 -0.00074704457 -0.0014820911 0.000400815 0.0010778522 -0.0011165808 -0.0009989345 -0.0014558474 0.00026162263 -0.00091623596 0.0016744592 0.00016232539 0.0002891991 -0.00044047058 0.0014906605 -7.277753e-05 -0.0016096185 -0.001442043 0.00012436329 0.0015799254 0.0007080103 -0.0010888659 -0.0014083612 -0.0020341128 0.00083418854 -0.001828406 0.00070256466 0.00037716434 -0.00025760167 -0.0019670913 0.0012574007 -0.00013027908 -0.0019751103 -0.0016452189 0.0015557642 0.0004006817 -0.0017077159 -0.00021476936 0.001129835 -0.0018919631 -0.0013009877 -0.00029032587 -0.0019419485 4.574378e-06 0.0003541835 0.0017690877 0.00031936864 0.00034333207 0.0010209511 -0.00081199047 0.0014394074 0.00010699297 -9.652049e-05 -0.0020143955 0.00013084535 0.0013020784 0.00036354963 -0.0017003397 -0.00067253975 -0.001178392 0.0011389187 -0.001385356 0.0011424031 -0.0010962832 -0.0013863954 -0.001511205 0.0007690296 -0.001865514 -0.0011536403 -0.0014747989 -0.0008908433 -0.0006847273 0.00036640585 0.0013856811 -0.00022289089 -0.0008686177 0.00030871975 0.0011635224 -0.0010087307 -0.0011381131 0.0010029005 0.0012277015 -0.0015104255 0.0016579032 -0.002017921 -0.0014639343 -0.0011768532 0.0002956271 -5.5779325e-05 0.00064772845 0.0013459753 0.0010428589 -0.0006153731 -0.0013090288 -0.0016492691 -9.8247445e-05 0.0018528089 -0.0016336538 0.00064905424 0.00075865857 -0.00078130286 -0.001556335 -0.0011005325 -0.0008893645 -0.0013949721 0.001307349 -0.0014868237 -0.000493938 0.000899792 -1.4648648e-05 -0.0015844323 -0.0010384603 0.0006375756 0.0004301358 -0.000349602 -0.0001091445 0.0005010425 0.00035207643 -0.00045575836 0.0010996397 -0.0015324454 0.0012732741 -0.0020452563 -0.00039983136 0.0012539326 -0.00060948444 0.0012219753 0.0010382412 -0.0015512485 -8.4272404e-05 -0.0010181316
another -0.0016508036 -5.494749e-05 0.0014123492 0.0018243351 -0.0010665001 -0.00077625265 -0.0012177944 0.00046943995 0.00070375885 -0.0019465949 0.00038220332 -0.0017725833 7.523497e-05 0.0010923581 -0.0010414124 -3.2151867e-05 -0.00045268264 -0.0017824561 -0.00033590663 0.0009799843 -0.0016181393 -0.0011537179 -6.9621005e-05 0.0017358991 0.000305739 0.0019221123 -0.001440578 0.0019654399 -0.0010156329 -0.0013788164 -0.001508086 0.00038958775 -0.00045422342 0.0014110035 -0.00013290248 0.00052214076 0.0013098763 -0.0017400017 -0.0005777423 -0.0009793808 -0.0019631914 0.0006168843 0.0003128681 -0.0005303344 -0.00053931633 -0.00134829 -0.0007540033 0.00030796241 0.0018144771 0.0014141895 -0.0007758088 0.00085834303 -0.00038604016 -0.0010201295 -0.00067427487 -0.0013120269 0.0008124169 -0.001664236 -0.0016911877 -0.00088900444 0.0016019355 0.00038006896 0.0010967839 0.0016597894 -0.0014796094 -0.0009207462 0.0016401205 0.0012017561 0.0010538397 0.0018068352 0.0017853485 -0.00028975194 0.0002932767 0.0009580181 0.0018508648 0.002077089 -0.0016912413 -0.0010240754 0.0011686241 9.8699704e-05 -2.0938332e-05 0.0014943941 0.0012049399 -0.0012012867 -0.0006747895 -0.0016199485 0.0013851334 0.0005732435 -0.0003421459 0.00057045964 0.0017156244 0.0015769643 0.0011271895 0.0007179681 0.0004668122 0.0017602389 0.0003024384 -7.3097384e-05 -0.0017727771 0.00061818777 -0.0017083911 0.0013364415 -0.0011680378 -0.00019742294 0.00043088172 -0.0002888251 -0.0019223965 0.0009204426 -0.0013169183 -0.0018946547 0.00069730915 -0.00016011413 0.001307317 -0.0013534185 0.00010831686 -0.00013640155 0.0011934978 -0.0021247582 0.0011253236 -0.0018877843 -0.001567448 0.00017657792 -0.0004848043 -0.0009461203 -0.0008775849 0.0009575556 -0.0020712782 0.00020991253 0.0008622011 1.6158823e-05 3.1966207e-05 0.001603921 -0.002157686 -0.0019371137 0.0008050818 0.0018457458 -0.0015552093 -0.0015693366 -0.00031896617 -0.0021136913 0.00066074234 0.0017723391 -0.0011956452 -0.0014807984 0.001698549 -5.0334842e-05 -0.00076428783 -0.00060788426 -0.0017277742 -0.00091226504 -0.00071609905 -0.000107779 9.745485e-05 0.0017087838 0.0012231114 -0.00016094811 -0.001817768 0.00049930916 -0.0012868815 0.0018296251 0.00093365595 -1.9172137e-05 0.0012278195 -0.0008045143 -0.0008554741 -1.46393795e-05 0.0019286231 0.0011541899 0.00033800284 0.00082780403 -0.0004677649 0.0020706372 -0.001476958 -0.00030696372 -0.0011507641 0.0015824882 -0.0006692362 -0.0005414395 0.0013834568 -0.0017256803 -0.0006689575 0.00065404933 -0.0012511333 0.0016364042 0.00012693551 -0.0012392101 0.00087433815 0.0015557024 7.061941e-05 0.0015458703 -0.0013566043 -0.0008023323 0.002105399 0.0010247431 0.00021911802 -0.00055020873 0.0009563928 0.00038132138 0.0016635621 8.794872e-05 0.0018857912 -0.0012073377 -0.0015171409 -0.00044850493 0.0005956579 -0.00042453792 0.0011424375 -0.001747221 -0.0018444055 0.0014228385 0.0012606198 -0.00097179855 -0.00083919935 -0.0007814329 -4.1542364e-05 0.0017798712 0.0001820978 -0.00040954756 -0.00082244014 -0.0006298637 -0.0017832589 0.0015793726 -0.0017829578 -0.0007580257 -0.0012643317 0.001786277 0.001242603 -7.505404e-05 0.00084976404 -0.00032589195 0.0019715885 -0.0008496096 0.0010142205 -0.00081362086 0.0017859048 0.0019395049 0.000999905 -0.00027985775 -0.0002043109 -0.0017957429 0.0017334797 -0.0016982718 -0.0014623082 0.0012052656 -0.000578653 0.0015928438 -0.0014796567 0.0018901444 0.00035134944 -0.0017061806 0.0008435479 -0.0012382494 0.0011227959 0.0012380305 -0.0019792458 0.0013948715 0.0011686261 0.0014572144 -0.0016455752 -0.0013539956 -0.0018471059 0.0011272352 -0.0009093738 0.0009227824 0.0009906729 0.0017183815 0.0003794006 -0.00015054441 0.00012589904 0.00059937174 -0.0018748314 -0.0011747776 -7.9339145e-05 0.0009732114 -2.1087983e-05 -0.0017956935 -0.00021357507 0.0012262895 0.0011554956 0.0006728832 -0.0010893213 -0.0006703685 -0.0005127426 -0.0013639156 -0.0015389465 -0.00019780536 0.00037206817 0.0010179236 0.0008200738 0.0019102168 -0.0015081293 0.002155566 -0.0005555039 -3.8445512e-05 -0.0008304688 -0.00074219453 -0.00015388305 -0.001628277 0.0017453317 0.0007609538 -0.0005612557 0.00052464235 0.001617812 -0.0011599284 0.00095994264 -0.00011124231 0.00057497644 -0.00030921953 -0.0019420037 0.0011103636 -0.00029323375 -0.0017359849 0.00020402558 -0.0012663321 0.0016901344 -0.0012705289 -0.0003043523 -3.761494e-05 -0.00077371055 -0.0007647028 0.001634747 0.00037792663 -0.0017963637 4.7197464e-05 -0.0020209989 -0.00057824136 0.0009078596 0.00054653536 -0.0010137908 0.0002874911 0.0011452798 -0.0014528679 -0.0006608483 -0.00037826315 -0.0018140344 0.0004205105 0.0013573545 0.00070933753 0.00044416316 -0.00017753428 -0.00026169483 -0.0012409549 -6.234753e-05 0.0012608051 0.0006931912 -4.858314e-05 0.0012841126 0.00054452854 -0.0013987835 0.0015962353 0.0019299454 -0.0018810962 0.0013203613 -0.0015875913 -0.00027008864 0.00093986327 -0.0012162155 -0.0015565065 -0.0015022464 -0.0021165581 -0.0014296771 0.0019262882 0.000536559 -0.0015373175 0.0015790175 0.001455059 0.00164718 0.0018407506 -0.0020099846 -0.0005102974 0.00036602767 0.00033001922 0.0009500444 -0.0015419172 0.00094533194 0.0017905198 -0.001831816 0.001510732 0.0007119431 -0.00085655076 -0.000303191 -0.0018710023 -0.0011123313 0.001148993 -0.0005333952 0.0020435383 -0.001560911 -0.0012886922 0.0012497068 0.001739973 0.0007260974 0.0013334153 0.0012219866 -0.0010875532 0.0018701875 -0.0011516678 -0.00053192955 -0.0013367357 0.001282653 -0.00073014904 0.00040829406 -0.0003060325 -0.00047082556 -0.0014212739 -0.0011380281 -0.00082146295 -1.3915132e-05 0.00038882752 -0.0007000571 0.0004989082 -0.001266255 0.0020580986 -0.0003133274 -0.0014604955 -0.00027781897 0.0017865819 -6.701201e-05 -0.0009440319 -0.0015485064 -0.001192277 -0.00054399855 0.0016114678 -0.0015647551 0.00034013702 -0.000112147856 0.00080781966 -0.0017195225 0.0015720996 -0.00054251874 0.00095554575 -0.0020336662 0.0011450888 -0.0016812126 -0.0006965203 -0.00025799277 -0.00068442244 -0.00029375227 -6.483685e-05 0.00079927966 -0.00049029145 -0.000610043 -0.0011262007 0.0018376431 0.0009080039 0.0021988223 0.001070353 -0.00085358205 0.0017043084 -0.0015036901 0.0005562949 -0.0007333749 0.000107014916 0.0007598103 -0.0006851755 -0.0008406413 -0.0003849558 -5.1968186e-06 0.0011882996 -0.0011994243 0.0008272704 -0.0005960041 -0.0015659215 -0.0011694279 0.00037828673 0.0017343023 0.0014069763 0.0016798887 0.0011974545 -0.0008030397 -0.00033599624 0.0015086286 0.001280615 0.0014061844 0.0013771475 0.00052668725 0.00058533 -0.0014756194 0.0015628986 0.0018139147 -0.00147545 6.726361e-05 0.0016434501 0.00060198916 0.0015099349 0.0016129917 -0.00040389126 0.0018848848 0.0013436005 -0.00029960758 -1.6785152e-05 0.0019511881 0.0010659411 -0.0012376074 -0.0008221189 -0.00052790734 0.0004847002 0.00014851928 -0.0018696971 0.00041247657 0.0017168621
