182 10
cortez -0.0031606017 -8.9175715e-05 0.07099438 0.090066426 -0.08427642 -0.07545489 0.07783937 0.10610013 -0.057151973 -0.059844956
said 0.07618907 -0.018383883 -0.030744292 0.06459436 -0.040107243 -0.020190168 0.03379609 0.020373678 -0.087954715 -0.107516505
gregorio 0.07634637 0.048866924 0.08206061 0.0069373036 0.069047436 -0.03803105 -0.0010025746 0.06729126 -0.08079125 -0.053980555
him -0.07158787 -0.0116097685 0.1095113 -0.07313052 -0.0170084 -0.021541253 0.08922581 -0.051598668 -0.0053735655 -0.06027487
killed -0.0954179 0.0494074 -0.07906303 -0.043714955 0.0037620408 -0.0040545976 -0.072487 0.10189683 0.047017213 0.08426565
i -0.08067441 0.044055916 -0.037863825 0.008384267 0.08660688 -0.045122735 0.04749356 -0.06635148 -0.037505474 0.09056741
follow -0.01369695 0.0021539817 -0.029239142 -0.07628252 -0.010128169 0.022757946 -0.0030665887 0.06325626 -0.031998903 0.0113807935
rangers 0.057319853 0.08054233 0.0013787057 -0.09158875 0.050356805 0.0036044521 0.084506005 0.0014029435 -0.03242972 -0.10225474
me -0.006859335 0.026783457 0.06342311 0.07043365 -0.053474948 0.017035265 0.066422015 -0.043171115 -0.035564687 0.05937314
sheriff 0.017392991 -0.00041579714 0.04391588 0.0025295985 0.09985867 0.049407814 -0.08252172 -0.06377631 0.006267054 0.054970246
went -0.085303955 0.036354735 0.060749922 0.057671446 0.07834981 -0.062553704 0.015614461 0.06631886 -0.029674003 -0.07011786
surrender -0.0014324489 -0.08655674 -0.044195388 0.07044297 0.03899524 0.0709373 0.07481461 0.081803314 -0.04287928 -0.014550177
it 0.025058419 -0.045399487 0.09092571 -0.09750391 0.07072398 0.027908862 -0.043966047 0.04903105 -0.019993434 0.060124718
another 0.10096844 -0.04515265 0.0048017735 -0.05695642 0.04282445 0.025429942 0.07627879 0.069216065 0.0916663 0.08193889
going 0.079387866 -0.07018883 -0.087140016 -0.0032546981 -0.02862073 0.078031816 0.06210422 -0.012998162 0.01328656 0.014142246
man 0.0789979 -0.09583023 0.0028182794 0.034036804 -0.0073896367 0.08304005 0.09305962 0.06796807 -0.008854856 0.07201113
pistol -0.08471738 0.031455074 -0.04143606 -0.05078004 0.038144533 0.053165358 0.080641195 -0.055367086 0.072195396 0.062498614
don’t -0.03561512 -0.08811482 0.061956026 0.06516659 -0.0044204555 -0.06828249 -0.066820435 -0.02106833 0.04862288 -0.043127477
corral -0.092770375 0.03655431 0.056698035 -0.0645512 0.01483968 -0.022250704 0.003784237 -0.09378855 0.023332251 -0.05480571
regret 0.011043094 -0.015771156 0.022942655 -0.07915438 -0.026931735 0.026685482 0.054088514 -0.023323374 -0.09538244 0.04423929
coming 0.0015502715 0.030874435 -0.06374691 -0.014042618 0.078907594 0.072590455 -0.03483703 0.029533528 -0.08374443 0.05776818
americans -0.045810007 -0.032024156 0.095334105 0.008678908 0.076231204 -0.060779102 0.05273541 0.10051911 -0.08548463 -0.053603865
hand -0.0671863 -0.05115382 -0.023909377 -0.08661524 0.086014524 -0.050849628 0.090601146 0.060517117 -0.06987678 0.027043043
trail 0.05621664 -0.0756745 -0.06833607 -0.024855684 -0.08314981 -0.016371153 0.00017160678 0.036968075 0.012277741 -0.0139828995
catch -0.055925533 0.017048515 -0.008609539 0.06834515 0.039904177 0.04530047 0.01478888 -0.026680272 -0.043975845 -0.010558975
even 0.015348016 -0.02738296 -0.06528377 -0.07804866 -0.08844075 -0.060601212 -0.015361433 -0.038700685 -0.06660004 -0.043124218
come 0.044471968 -0.038669452 0.09132381 0.0139885135 -0.06876995 0.093784735 0.08030741 0.05925556 -0.07110034 0.05234022
let 0.041208852 0.05048035 0.04778279 0.019191686 -0.028303323 0.08322221 0.09897341 0.041629873 -0.02981368 -0.0054022213
taken 0.014281686 -0.08610782 -0.07509128 -0.002580691 0.014835114 -0.058863334 -0.042281266 -0.0683644 0.07976169 -0.0064594434
us -0.044585757 0.056597732 0.09456069 -0.041239854 0.081037186 0.05322392 0.059405874 0.0066076587 0.08101514 -0.07302392
bloodhounds -0.08207761 0.09297319 -0.000616862 -0.019780885 0.046949405 -0.041125983 0.02819558 0.07049542 0.06018944 -0.07674517
fear 0.09618216 0.045203194 0.05037477 -0.06335388 0.09128673 -0.022838961 0.09250247 -0.045669306 -0.08381716 0.058274984
tell 0.017822774 -0.021734385 0.098752715 0.094731495 -0.09591998 0.024555128 0.06382384 0.04157785 0.018773274 0.00021850783
says 0.00848167 -0.039699838 -0.063151725 -0.02068029 0.04274477 0.087427944 0.097068705 -0.055353474 -0.097733684 0.0904342
wrongdoer 0.03465145 0.05141912 0.064756684 -0.027995255 0.07420148 0.02804122 0.02969352 -0.022589626 -0.03140552 -0.025631651
according 0.043010365 -0.00035815555 -0.09038814 -0.09650335 -0.059476208 -0.0023459042 0.023913568 0.09897548 0.054545898 -0.04946621
people 0.0036175447 0.04959466 0.08305723 -0.011777387 0.046532016 -0.05857771 -0.0048910747 0.084568225 -0.025260635 -0.10207472
must 0.057994414 -0.03959725 -0.011623999 0.09955067 -0.022353796 -0.04786481 -0.052855007 0.07080214 -0.056625932 0.020054443
end -0.05232044 0.06095745 0.044207666 0.025971353 -0.014604049 -0.02749555 0.09043523 0.052461725 -0.022009403 -0.095411174
hear -0.07395876 -0.01043588 -0.006435867 -0.025582336 0.09784727 -0.0045023365 0.059643116 -0.07345982 -0.025505528 -0.0568902
arms -0.07045912 0.011669082 -0.06787333 -0.022455916 0.03884014 0.05834505 0.014052779 0.022790805 -0.042480126 0.068960756
won’t -0.06227645 0.046163402 -0.078979746 0.020858128 -0.048505977 -0.04332833 -0.028391905 0.05867267 0.056646157 -0.05291246
voice 0.008784761 -0.08484775 0.08252003 0.09282611 -0.025239822 0.007617761 0.01000887 0.05749063 -0.08796144 0.0017295114
mexican 0.06886737 0.022041224 0.014735044 -0.092964366 0.08690951 -0.06302101 -0.028621746 0.03723422 -0.009106227 0.010464267
one 0.019197764 -0.0693908 -0.09034778 0.09065736 0.064740114 -0.07022102 0.03885727 0.0065289657 0.04458086 -0.07787025
jumped 0.041558843 0.04218245 0.106855385 -0.044165004 -0.011007927 -0.07538328 -0.09260077 -0.08469617 -0.013185332 -0.07356345
i’m 0.05000763 -0.06289737 0.031840805 0.0071912864 -0.031374145 -0.010598897 0.10341705 0.09496697 -0.047220856 0.08497687
major -0.054447144 0.05797376 -0.023302615 0.033998914 0.03281731 0.06691517 -0.018932402 0.0938451 0.07375932 -0.10317152
cowardly -0.0756405 -0.079572394 0.04827878 -0.02872722 -0.05948385 -0.084308244 0.094169274 0.031354524 -0.10044622 -0.06409885
dove 0.03143862 -0.04724413 0.053011384 -0.042318653 0.026453188 -0.080500156 0.06232268 0.04824643 0.007718067 0.029936869
whiter -0.08663221 0.020993166 -0.007706559 -0.093104765 -0.09397664 -0.014391762 0.045258798 0.037537653 -0.06572832 -0.0700531
showing -0.047745332 -0.024328187 -0.06234335 -0.09695569 -0.02267586 -0.08562457 -0.05627663 -0.048699535 -0.026226703 -0.027372716
without -0.088407956 -0.008923402 0.08670623 0.07740091 -0.06952417 -0.037392955 0.03490603 -0.092673436 0.01221662 0.060966548
set 0.05905141 -0.088976234 -0.03765206 -0.08085377 0.0039360016 0.091230564 0.0651865 0.05564812 0.04798048 -0.039306104
gonzales 0.09693688 -0.0735909 -0.06372618 -0.023334661 -0.00355159 -0.033353318 -0.0015178031 0.08264988 -0.008303075 -0.026482094
struck 0.032445386 -0.08663427 0.09645005 0.0842061 -0.088234924 0.020665642 0.109123394 -0.06555848 -0.07749039 -0.09385416
could 0.08420443 -0.007777936 0.095969826 -0.080627374 0.039224487 0.025569089 0.011661472 0.027843175 -0.07618654 -0.09845114
fearfully 0.02358322 0.061449915 0.08002501 0.057368778 -0.0077145426 0.08306826 -0.09326026 0.03409816 0.002587921 0.038439244
star 0.07471477 -0.06749405 0.0600791 -0.09471821 -0.005882028 -0.08727464 -0.048189685 0.09705853 -0.019469162 0.024245327
following 0.091920264 0.08824733 -0.072355375 -0.028944394 0.10260528 0.05006123 -0.008410532 -0.08068171 0.026517235 -0.075277634
like 0.0835135 -0.04649362 -0.003920237 0.010366042 0.0006768266 0.010353849 0.06626097 0.0023512957 -0.035897687 -0.020623276
himself 0.060006253 0.014688295 -0.002594171 0.09307944 -0.04740037 -0.009356633 0.094282284 0.071256645 0.013981554 -0.09394485
trying 0.014231339 -0.024560813 0.10492331 0.011954473 0.019514538 0.022761576 -0.011960578 -0.043740615 -0.0019684196 -0.030762546
overtake 0.06786575 0.089084215 0.0028852825 0.029273879 -0.056624725 0.014678518 -0.06506895 -0.08063903 -0.062543675 -0.09884932
several 0.07353813 -0.058137346 0.085776955 -0.07251462 0.03530285 0.09604098 -0.076170094 -0.09799744 -0.044553567 -0.029895915
defend -0.0029127293 -0.08845381 -0.08557905 0.028419241 -0.08187126 -0.09103057 -0.022973776 -0.08462284 -0.07049168 -0.08502963
questions -0.0021902276 -0.046337675 0.07093956 0.015516979 -0.030785345 0.060704313 -0.05729544 -0.043794733 -0.073152184 -0.048309095
karnes -0.0180933 0.06489643 -0.02770393 0.049189676 0.069044426 -0.074637055 0.045648504 0.061269782 -0.029544747 0.06625022
look 0.061556242 -0.06560789 -0.062103633 0.02581078 -0.013919712 -0.061029322 0.097531036 -0.047775816 -0.0672964 -0.005261817
happened -0.026194656 0.0035580392 -0.02851269 -0.0050500245 -0.0044128112 0.007055897 0.08587554 -0.05234326 -0.018537233 0.049778793
died 0.08206584 -0.044642687 0.09275823 0.08318162 -0.04314965 0.002670812 0.04447902 -0.036924966 -0.05592333 -0.068012916
leaving -0.006389239 -0.0032922882 0.045592792 -0.024692649 -0.0013474899 0.024539653 0.049507402 0.00020195192 -0.06394962 -0.09367896
román 0.000402138 0.06642332 0.016447457 -0.08940305 -0.07873065 0.065364644 -0.0364489 0.063377276 -0.06753592 0.08361539
badly -0.06318272 0.03116533 -0.0044992566 -0.06814162 -0.03067066 -0.013331225 -0.050600898 -0.007806281 -0.077329524 0.02089808
wounded 0.0911401 -0.024441786 -0.007408304 0.03525938 0.087557025 -0.059426643 -0.066959515 -0.027943574 0.0906631 0.006829808
two -0.08582493 -0.014769337 0.099065796 -0.07527824 -0.051691636 0.09244249 -0.08743943 0.040220648 0.0055394685 0.0635179
afternoon 0.08380185 -0.02979531 -0.03440022 0.08876629 0.023967832 0.06146395 -0.092353754 0.09930722 -0.01488682 -0.064740285
arrived 0.030310981 -0.005316172 0.04980115 -0.02289065 -0.040500235 0.02153643 0.08571517 -0.045968127 0.026927255 -0.08387693
known -0.06746658 -0.0054678307 -0.084185064 0.02786264 0.017110003 -0.02396256 0.052186508 0.09999422 0.082950175 -0.022913339
around 0.02247923 -0.041484777 -0.075500675 0.06245349 -0.016563153 -0.00816501 -0.013490408 -0.040242415 0.039042436 -0.049322847
asking -0.095258676 0.088849835 0.04510155 0.092878036 0.067934014 0.028562369 0.100506924 -0.041960143 -0.06903609 0.03926832
half 0.038560804 -0.058086213 0.105403796 -0.03546246 0.10023971 0.00660421 -0.059056062 -0.012555154 -0.07462902 -0.03974883
aflame 0.010431253 0.094848014 0.09515041 -0.06550352 0.035035204 0.022151418 -0.02390284 -0.09102743 0.010176073 -0.08363545
hour 0.06362013 -0.058795154 0.058500778 0.09797849 -0.00022987678 0.044795625 -0.01633821 0.07608484 0.037893403 -0.093519695
afterward -0.023095295 0.03544956 0.0046842764 -0.014083035 -0.007956532 -0.017829668 0.008685265 0.046522737 -0.04303586 -0.044511776
found 0.0002560311 0.0024314073 0.0032341918 -0.048901904 0.046389084 -0.022528354 0.022544824 0.009975359 0.058660064 -0.0722865
outlawed -0.06667303 -0.04579326 0.100111574 -0.015948823 -0.09102896 -0.0058623883 -0.041659158 0.06403796 -0.09793178 0.023223175
throughout -0.09217861 0.012026901 0.06300792 0.07361936 -0.074667 -0.060832556 -0.06648052 -0.07768254 -0.096157044 -0.023887068
whole -0.0067061502 -0.07407427 0.077504665 0.010939212 0.063545115 0.013593816 0.01308505 -0.06775236 -0.024942376 0.034009203
state -0.05075866 0.010838856 0.034500733 -0.0145365 0.10181197 0.08232345 0.027850471 0.075262144 0.05730058 -0.061468963
dead -0.051396936 -0.06686674 -0.07623833 0.0837518 -0.019252356 -0.068866044 -0.040375467 0.052437603 -0.029625844 -0.039073184
alive 0.017158575 -0.028860305 -0.010892603 0.010534948 -0.027504861 0.08400356 0.04177706 -0.0957516 0.06024245 -0.0734869
ranch 0.008700632 0.043656703 -0.046765573 -0.020918578 0.08324215 -0.042717613 -0.073660016 0.09499701 -0.023794139 -0.05155689
men 0.086194515 0.042423103 0.045994543 0.09297358 -0.08332647 0.0519583 0.021814363 0.043619175 0.015848264 0.041832764
brother’s 0.04651345 0.060287274 -0.026761832 -0.045783218 -0.0013696114 0.024539124 -0.028997716 0.063903466 0.039892726 0.07234697
death 0.026611933 0.08009366 -0.010490211 0.081254005 0.038186096 -0.081232734 -0.03700098 -0.02303032 0.04712279 -0.011688104
soul -0.027419439 0.07790325 0.0991717 -0.016426904 -0.048474696 -0.0474633 -0.046517644 -0.092000216 0.012183779 -0.047828067
belmont 0.025955869 0.05489846 -0.035625357 -0.09584656 0.018098239 -0.067890756 0.028003765 -0.034374014 0.06850131 0.0015639218
ballad 0.036218904 -0.028218899 -0.013819751 0.0765953 0.015005157 -0.059111234 -0.07631851 0.014110303 0.06312234 0.052469324
succeeded -0.089526296 0.08555717 0.04565174 0.07497386 0.09964274 -0.07327523 -0.08764625 0.06095125 0.0927588 0.030711258
way 0.07164733 -0.016000157 0.08225803 -0.094756976 -0.07924232 -0.06681095 -0.038430553 0.0512263 -0.039347313 -0.085260876
take 0.08569059 -0.03790997 0.09286889 -0.04889706 0.04267697 0.04802246 0.027426237 -0.024428062 0.02583098 -0.088482216
you -0.026323268 -0.026059087 0.077737 -0.03472231 -0.06388338 0.04263827 -0.002412114 -0.03263038 0.067134984 0.03369456
them -0.03596454 0.0063586985 0.10196846 0.07713135 0.068110794 0.045486856 0.02940096 -0.012008128 -0.067024276 -0.012588261
appeared -0.0140232295 -0.0057936115 -0.0571475 0.07343321 -0.0636324 -0.07261706 -0.024352422 -0.011816678 -0.07749895 0.0017863908
suddenly -0.052333377 -0.012040828 -0.070780575 0.019655865 0.034000475 -0.00044001947 -0.05303487 -0.014559455 0.07043018 0.03440155
house -0.08779318 -0.0347068 0.02791434 0.021323878 -0.09244569 0.045009207 -0.084398516 -0.07123596 0.03263717 -0.03850808
surrounded 0.037068762 0.08839239 -0.029075256 0.09295756 0.020141663 0.098137744 0.06084808 -0.086853825 -0.03505722 0.058717813
offered 0.056923363 0.085852705 0.07424863 0.080647856 -0.096294925 0.041887 -0.047483023 0.038448438 0.058740135 0.03879277
dollars 0.077757455 0.013510288 -0.005039826 0.05733765 -0.05298195 -0.0013519807 0.0997001 -0.04942829 0.034507547 -0.08993238
thousand 0.09790791 0.0816168 0.0139543805 0.05109665 0.015112968 -0.06411421 -0.013625827 0.06569435 -0.047312845 -0.041825462
get 0.051863886 0.02550474 -0.009399125 -0.029596692 0.06442466 -0.05795088 -0.027213832 -0.05916929 -0.044768456 -0.09401953
wanted -0.04340461 -0.08490807 0.021369359 -0.08634141 -0.09530686 -0.08254744 -0.06415236 0.07251978 0.035292912 -0.0042116623
flew -0.02848176 -0.07571116 0.011161119 0.0052185934 0.0040572654 0.008095296 0.011052802 0.002163767 -0.08227991 -0.06382825
fast -0.08185582 -0.014507317 0.028195277 0.0742933 -0.014258671 -0.024787188 0.10083603 0.009143805 -0.028350402 0.07449317
arrest 0.026870036 -0.053439725 0.06588106 0.045101535 -0.070544675 -0.00323174 0.0083448645 0.057473578 -0.017176544 -0.0280653
go 0.017404273 0.008371287 0.012712836 -0.026480041 -0.059722394 0.072950795 0.07648135 0.08370481 -0.08582372 0.02522625
see -0.033744484 0.094221234 0.03673691 0.04649554 0.026577288 0.065473765 -0.054065038 0.08288727 -0.026826737 -0.05196108
willing -0.019868761 0.09659492 -0.06537394 -0.021822931 0.07145117 -0.00041725024 -0.06054582 -0.062724136 0.088552296 0.06181293
cry 0.048482258 -0.033344753 -0.08675562 0.03749649 0.074244365 -0.056812167 -0.074026585 -0.02638814 -0.05127052 -0.027791992
at -0.018641826 -0.053644903 0.09834315 -0.09321269 0.04701077 0.05408462 -0.012231973 0.09206668 0.09755897 -0.058165405
weapons -0.05858314 -0.06745449 -0.073027246 -0.030536028 -0.053557485 -0.08418258 0.010936284 0.03373364 0.06187943 -0.03132936
tree -0.044244133 0.012213011 0.005711772 0.08093764 0.0027148323 0.07190222 -0.081518866 0.085450605 -0.019049264 0.085499875
cypress -0.07532515 0.017131684 0.013808848 -0.00010046379 -0.049411893 -0.09271817 -0.07085236 -0.07749257 0.018266028 0.0024493095
shade -0.017743021 0.07086099 -0.023123425 -0.013440043 -0.088438734 -0.09938915 0.09022917 -0.05709979 -0.06415758 0.05073799
farewell 0.06724493 -0.068913125 0.011941162 -0.060401194 0.016960196 -0.043469567 -0.032572497 0.023209887 0.08533706 0.065157734
say -0.095856264 -0.056589138 0.08228111 0.0195725 -0.040995866 0.005192334 0.096889585 -0.008445325 -0.09466688 0.012104705
hearts 0.06457287 0.061481692 0.0471444 -0.057343386 -0.0012576965 -0.0016484973 0.04970235 -0.07509954 -0.08250445 -0.004215209
suffering -0.08409695 0.05676834 0.0052637514 0.099429 -0.049353417 -0.0065979655 0.08326726 -0.0350307 -0.054045063 0.006943891
family 0.027570402 -0.026597008 0.06946941 -0.07761672 0.036282036 0.0049630185 0.09005121 0.06326244 0.06732793 0.07360503
poor -0.093373485 0.094603345 -0.07109086 -0.027265927 -0.04585367 -0.05045266 -0.07614609 -0.07406399 -0.04788895 -0.017655697
matters -0.050689053 0.06107926 -0.093800694 -0.052871507 0.09504702 0.070001036 0.07756951 0.043192446 0.0045747897 -0.061019883
jail 0.06149335 0.025176652 0.08342417 0.06284941 0.08304745 0.08582864 -0.096181706 -0.06288112 0.011827726 0.058945566
inside 0.07393088 0.05510314 0.07751215 -0.051671542 0.06656048 -0.04091548 -0.09009841 0.0920481 0.013927355 -0.027927566
godly -0.024049988 -0.042455517 0.051010463 0.043610126 -0.025183503 -0.07377016 -0.03453865 -0.0010719264 0.05989517 -0.031319685
cell -0.00052535324 0.008208379 -0.06823823 0.02032006 -0.013551131 0.027561666 0.050069187 -0.01189598 -0.029058365 0.07522095
loud 0.051337164 0.06661453 0.048030782 0.08653531 0.0761635 -0.011222567 0.08918655 0.04736712 0.052877247 -0.01656631
shouting -0.019669047 -0.044710454 -0.082847476 0.030254796 0.08947982 0.088950835 -0.018231662 0.06221302 0.036585834 -0.044850238
kill 0.020614678 -0.054727364 0.085593864 0.054351963 0.033455417 0.04048161 0.088260725 0.07553567 -0.009332019 -0.07392722
last 0.0851369 0.07078902 0.022426823 -0.013410085 -0.057229307 -0.046005562 0.08965819 -0.028787829 -0.06575931 0.09399325
jesús 0.07760618 0.09037212 0.016645055 -0.08334229 0.08725627 -0.03738857 0.059212442 0.047814835 0.096338205 -0.09718038
surrounding 0.09300375 -0.093155324 -0.062458348 -0.09049418 -0.052224603 0.07320951 0.09565406 -0.030253647 0.03529185 -0.04131811
do 0.07881471 0.058668755 2.0861626e-06 -0.03628675 -0.07224306 0.04768616 0.014529789 -0.026131857 0.07837807 -0.04049615
if -0.09148987 -0.022554707 0.001251471 -0.066392556 -0.054866157 -0.08499777 0.09229873 0.07424028 -0.0029524327 0.07367663
cannot 0.079406425 -0.008109222 0.073144585 0.038203336 0.053987212 0.07127605 -0.04313688 -0.016443688 0.007416889 0.0353805
scheming 0.033389598 0.05079905 0.04786895 -0.084511556 -0.030711988 -0.072460406 0.09809932 0.050699253 0.0011304596 0.039712947
use -0.076766886 -0.06277029 0.03227568 0.06562213 0.03981934 0.059824456 -0.018969486 -0.031550705 0.0026957982 -0.03381571
what -0.05482943 -0.07843843 0.06723071 -0.010785448 -0.018237026 -0.07832866 0.094765134 0.010352317 0.016810115 0.022976946
afraid -0.073278725 0.01580678 0.03198938 -0.08576132 0.050576836 0.024253054 0.07665731 0.0516215 -0.031067384 -0.073341966
decided 0.07096213 0.019015348 0.051992357 0.063811086 0.01912279 -0.061276115 -6.296635e-05 0.08268298 -0.060985483 0.09438281
laredo -0.07154155 0.041880086 0.023098502 0.074535474 -0.047889505 -0.045859914 -0.05972748 0.033880323 -0.045771826 0.08361898
towards -0.04230767 -0.09216053 -0.04295902 0.064858235 -0.06171386 -0.053559497 -0.06988661 0.062761344 0.031690374 0.024287246
out -0.030537313 0.059718557 -0.05853912 -0.01980712 -0.058096956 -0.0103638945 -0.018390628 0.08709527 7.760333e-06 -0.089191936
run -0.05294308 -0.070284866 0.032313965 0.09412675 -0.05607534 0.080955155 0.08926612 -0.06625098 -0.0904084 0.08881146
gunfight 0.08508156 -0.049324125 -0.056132495 0.078973465 0.04156715 0.07893155 -0.0679277 -0.0882083 0.011754264 -0.10820556
got -0.04796633 -0.03603963 0.10010607 0.086144 -0.02629143 0.057171423 0.08491113 -0.01896374 0.09434089 0.06760301
singing 0.020663412 -0.038644806 -0.048903227 -0.030572418 0.07964812 -0.062143344 -0.028134154 0.093158185 0.034237012 0.05928478
hundred -0.07827727 -0.009390917 0.062529236 -0.04653295 0.07812165 0.09210034 0.0010379975 -0.016143382 -0.009626337 -0.064813785
three -0.08369328 -0.015495523 -0.024142012 0.043929733 -0.067970626 0.054032613 -0.06631333 -0.0774982 0.08392696 0.08761613
quite -0.034539316 0.035154536 -0.054975506 -0.087564304 -0.053719647 0.067285396 0.06558016 0.09586804 0.0696976 0.064724274
shall 0.013001668 -0.098043025 0.045877624 -0.0053822277 0.06332096 0.017834747 -0.03129798 0.07759973 0.015546655 0.00055209396
fight -0.045740224 -0.08511681 -0.075792596 0.08674685 -0.08839445 0.090169944 -0.0917636 -0.002006128 -0.020147631 -0.09089762
right 0.08622902 0.06788142 0.030352525 0.0482877 0.0014191056 0.09425605 0.070226185 -0.09818338 -0.044425935 -0.013256221
return 0.030543001 -0.043589123 0.014885053 -0.07835464 0.027655276 0.046998564 0.049652204 -0.031444453 -0.08425269 -0.092745714
things -0.0060109138 -0.07406225 -0.061617237 0.061126687 0.07513761 0.019808384 -0.07508632 -0.05328668 0.077656485 0.033205725
many -0.051398415 -0.07427823 0.010537762 0.03445435 0.022174764 0.030944612 -0.054057337 -0.09674307 -0.07146235 -0.0010694234
news 0.048004497 0.043450776 0.02569221 0.051375505 0.0033065367 0.04012052 -0.08795793 0.082093626 0.05925935 0.044456176
haughtily 0.07316745 0.0841196 0.014341869 -0.016727699 0.009070792 -0.094310604 0.08765313 -0.060344636 0.08160979 -0.048481483
met 0.009245375 -0.09382188 -0.08537724 -0.07868683 -0.07267274 0.002215839 -0.06570286 -0.044263173 -0.056575935 -0.051931363
bother 0.073138505 0.047149863 0.103901625 0.06995167 -0.048500776 0.06996153 -0.083453305 -0.016376307 -0.08229114 0.02724767
doesn’t 0.02221488 0.06769688 0.044872418 -0.07076799 0.08407412 -0.06340682 0.0989664 0.038879555 -0.04472017 -0.061625976
mist -0.04235096 -0.061945274 0.10625774 -0.028090162 0.08441446 -0.09791199 0.026960628 -0.0028840587 0.07409838 -0.10137467
little 0.07433096 -0.051380884 -0.05815026 -0.05605591 -0.032959953 -0.034101643 -0.03062214 -0.073509276 0.0066529475 -0.0077106114
thunderstorms -0.017036922 0.037682705 -0.07430461 -0.032535326 0.052088976 0.08486419 -0.09711999 0.0736244 0.05307987 -0.041281942
weathered 0.08694667 -0.09312748 0.078926265 0.05380274 0.01598585 -0.052850768 -0.038005717 -0.029898945 0.012759905 0.009688625
bullets 0.07617585 0.09983724 0.10026517 -0.039868552 0.101612054 -0.008279657 0.05570273 0.032881 -0.010026295 0.025495404
lot -0.052194357 -0.05854979 -0.07135128 0.0193497 0.06731103 0.00873594 0.015731787 0.033696078 0.07933313 -0.08006816
shooting 0.023475157 -0.075092174 0.039667517 0.09507893 0.075902745 0.06407891 0.08143541 0.067184195 0.068138435 0.08438061
made -0.049781144 0.091845416 0.05381286 -0.020883802 0.08648924 0.050411146 0.09912838 0.032222737 0.09854822 0.008080627
encinal 0.09149167 0.03532955 0.068123005 -0.036100406 0.06903766 0.07255169 -0.0195564 -0.016809598 0.035486307 -0.07237229
el 0.0973555 -0.09780383 -0.064994894 0.027837861 0.06431987 -0.053673673 0.027524924 0.09121311 -0.068154216 -0.060999118
country -0.04972749 -0.036845513 0.02049112 0.09701959 0.06469048 0.0031707855 0.025943661 0.08685508 0.091605216 0.053902186
